<?xml version="1.0"?>
<opencv_storage>
<opencv_ml_svm>
  <format>3</format>
  <svmType>C_SVC</svmType>
  <kernel>
    <type>LINEAR</type></kernel>
  <C>1.</C>
  <term_criteria><iterations>100</iterations></term_criteria>
  <var_count>2500</var_count>
  <class_count>10</class_count>
  <class_labels type_id="opencv-matrix">
    <rows>10</rows>
    <cols>1</cols>
    <dt>i</dt>
    <data>
      0 1 2 3 4 5 6 7 8 9</data></class_labels>
  <sv_total>45</sv_total>
  <support_vectors>
    <_>
      1.30104261e-18 1.30104261e-18 1.30104261e-18 1.30104261e-18
      1.30104261e-18 1.30104261e-18 1.30104261e-18 1.30104261e-18
      1.30104261e-18 1.30104261e-18 1.30104261e-18 1.30104261e-18
      1.30104261e-18 1.30104261e-18 1.30104261e-18 1.30104261e-18
      1.30104261e-18 1.30104261e-18 1.30104261e-18 1.30104261e-18
      1.30104261e-18 1.30104261e-18 1.30104261e-18 1.30104261e-18
      1.30104261e-18 1.30104261e-18 1.30104261e-18 1.30104261e-18
      1.30104261e-18 1.30104261e-18 1.30104261e-18 1.30104261e-18
      1.30104261e-18 1.30104261e-18 1.30104261e-18 1.30104261e-18
      1.30104261e-18 1.30104261e-18 1.30104261e-18 1.30104261e-18
      1.30104261e-18 1.30104261e-18 1.30104261e-18 1.30104261e-18
      1.30104261e-18 1.30104261e-18 1.30104261e-18 1.30104261e-18
      1.30104261e-18 1.30104261e-18 1.30104261e-18 1.30104261e-18
      1.30104261e-18 1.30104261e-18 1.30104261e-18 1.30104261e-18
      1.30104261e-18 1.30104261e-18 1.30104261e-18 1.30104261e-18
      1.30104261e-18 1.30104261e-18 1.30104261e-18 1.30104261e-18
      1.30104261e-18 1.30104261e-18 1.30104261e-18 1.30104261e-18
      1.30104261e-18 1.30104261e-18 -1.02294398e-04 -1.02294398e-04
      -1.02294398e-04 -1.02294398e-04 -1.02294398e-04 -1.02294398e-04
      -1.02294398e-04 -1.02294398e-04 -1.02294398e-04 -1.02294398e-04
      -1.02294398e-04 -1.02294398e-04 -1.02294398e-04 -1.02294398e-04
      -2.97583701e-05 1.30104261e-18 1.30104261e-18 1.30104261e-18
      1.30104261e-18 1.30104261e-18 1.30104261e-18 1.30104261e-18
      1.30104261e-18 1.30104261e-18 1.30104261e-18 1.30104261e-18
      1.30104261e-18 1.30104261e-18 1.30104261e-18 1.30104261e-18
      1.30104261e-18 1.30104261e-18 1.30104261e-18 1.30104261e-18
      1.30104261e-18 1.30104261e-18 1.30104261e-18 1.30104261e-18
      1.30104261e-18 1.30104261e-18 1.30104261e-18 1.30104261e-18
      1.30104261e-18 1.30104261e-18 1.30104261e-18 1.30104261e-18
      1.30104261e-18 1.30104261e-18 -5.57969452e-06 -1.39492360e-04
      -6.69563306e-05 -6.69563306e-05 -6.69563306e-05 -6.69563306e-05
      -6.69563306e-05 -6.69563306e-05 -6.69563306e-05 -6.69563306e-05
      -6.69563306e-05 -6.69563306e-05 -6.69563306e-05 -6.69563306e-05
      -6.69563306e-05 -6.69563306e-05 -1.39492360e-04 -2.41786765e-05
      1.30104261e-18 1.30104261e-18 1.30104261e-18 1.30104261e-18
      1.30104261e-18 1.30104261e-18 1.30104261e-18 1.30104261e-18
      1.30104261e-18 1.30104261e-18 1.30104261e-18 1.30104261e-18
      1.30104261e-18 1.30104261e-18 1.30104261e-18 1.30104261e-18
      1.30104261e-18 1.30104261e-18 1.30104261e-18 1.30104261e-18
      1.30104261e-18 1.30104261e-18 1.30104261e-18 1.30104261e-18
      1.30104261e-18 1.30104261e-18 1.30104261e-18 1.30104261e-18
      1.30104261e-18 1.30104261e-18 1.30104261e-18 -5.57969452e-06
      -1.35772571e-04 -2.97583701e-05 1.30104261e-18 1.30104261e-18
      1.30104261e-18 1.30104261e-18 1.30104261e-18 1.30104261e-18
      1.30104261e-18 1.30104261e-18 1.30104261e-18 1.30104261e-18
      1.30104261e-18 1.30104261e-18 1.30104261e-18 1.30104261e-18
      1.30104261e-18 -1.45072059e-04 -2.41786765e-05 1.30104261e-18
      1.30104261e-18 1.30104261e-18 1.30104261e-18 1.30104261e-18
      1.30104261e-18 1.30104261e-18 1.30104261e-18 1.30104261e-18
      1.30104261e-18 1.30104261e-18 1.30104261e-18 1.30104261e-18
      1.30104261e-18 1.30104261e-18 1.30104261e-18 1.30104261e-18
      1.30104261e-18 1.30104261e-18 1.30104261e-18 1.30104261e-18
      1.30104261e-18 1.30104261e-18 1.30104261e-18 1.30104261e-18
      1.30104261e-18 1.30104261e-18 1.30104261e-18 1.30104261e-18
      1.30104261e-18 -1.63671037e-04 -1.26473067e-04 1.30104261e-18
      1.30104261e-18 1.30104261e-18 1.30104261e-18 1.30104261e-18
      1.30104261e-18 1.30104261e-18 1.30104261e-18 1.30104261e-18
      1.30104261e-18 1.30104261e-18 1.30104261e-18 1.30104261e-18
      1.30104261e-18 1.30104261e-18 1.30104261e-18 -4.83573531e-05
      -1.58091338e-04 -8.55553153e-05 1.30104261e-18 1.30104261e-18
      1.30104261e-18 1.30104261e-18 1.30104261e-18 1.30104261e-18
      1.30104261e-18 1.30104261e-18 1.30104261e-18 1.30104261e-18
      1.30104261e-18 1.30104261e-18 1.30104261e-18 1.30104261e-18
      1.30104261e-18 1.30104261e-18 1.30104261e-18 1.30104261e-18
      1.30104261e-18 1.30104261e-18 1.30104261e-18 1.30104261e-18
      1.30104261e-18 1.30104261e-18 1.30104261e-18 1.30104261e-18
      1.30104261e-18 1.30104261e-18 -1.45072059e-04 -4.83573531e-05
      -2.17608089e-04 -9.67147062e-05 1.30104261e-18 1.30104261e-18
      1.30104261e-18 1.30104261e-18 1.58026614e-06 1.30104261e-18
      1.30104261e-18 1.30104261e-18 1.30104261e-18 1.30104261e-18
      1.30104261e-18 1.30104261e-18 1.30104261e-18 1.30104261e-18
      -4.83573531e-05 -2.08308586e-04 1.25087863e-05 7.54414286e-05
      -5.62831810e-05 1.30104261e-18 1.30104261e-18 1.30104261e-18
      1.30104261e-18 1.30104261e-18 1.30104261e-18 1.30104261e-18
      1.30104261e-18 1.30104261e-18 1.30104261e-18 1.30104261e-18
      1.30104261e-18 1.30104261e-18 1.30104261e-18 1.30104261e-18
      1.30104261e-18 1.30104261e-18 1.30104261e-18 1.30104261e-18
      1.30104261e-18 1.30104261e-18 1.30104261e-18 1.30104261e-18
      1.30104261e-18 1.30104261e-18 1.30104261e-18 -2.06448691e-04
      -2.41786765e-05 1.30104261e-18 -2.41786765e-05 -2.17608089e-04
      -1.69250736e-04 -1.69250736e-04 -1.68855666e-04 -1.66211757e-04
      -1.61653297e-04 -1.67062666e-04 -1.69250736e-04 -1.69250736e-04
      -1.69250736e-04 -1.69250736e-04 -1.69250736e-04 -1.69250736e-04
      -1.69250736e-04 -1.69250736e-04 -1.81017909e-04 8.46497496e-05
      2.19237118e-05 5.48852540e-06 4.79988012e-05 -5.62831810e-05
      1.30104261e-18 1.30104261e-18 1.30104261e-18 1.30104261e-18
      1.30104261e-18 1.30104261e-18 1.30104261e-18 1.30104261e-18
      1.30104261e-18 1.30104261e-18 1.30104261e-18 1.30104261e-18
      1.30104261e-18 1.30104261e-18 1.30104261e-18 1.30104261e-18
      1.30104261e-18 1.30104261e-18 1.30104261e-18 1.30104261e-18
      1.30104261e-18 1.30104261e-18 1.30104261e-18 1.30104261e-18
      1.30104261e-18 -1.69250736e-04 1.30104261e-18 1.30104261e-18
      1.30104261e-18 -1.69250736e-04 1.30104261e-18 3.95066536e-07
      5.47015179e-06 7.74938144e-06 7.74938144e-06 7.44548470e-06
      2.24884025e-06 1.30104261e-18 1.30104261e-18 1.30104261e-18
      1.30104261e-18 1.30104261e-18 1.30104261e-18 1.30104261e-18
      -2.76546575e-06 1.30104261e-18 1.30104261e-18 1.30104261e-18
      5.48852540e-06 -8.25399093e-06 1.30104261e-18 1.30104261e-18
      1.30104261e-18 1.30104261e-18 1.30104261e-18 1.30104261e-18
      1.30104261e-18 1.30104261e-18 1.30104261e-18 1.30104261e-18
      1.30104261e-18 1.30104261e-18 1.30104261e-18 1.30104261e-18
      1.30104261e-18 1.30104261e-18 1.30104261e-18 1.30104261e-18
      1.30104261e-18 1.30104261e-18 1.30104261e-18 1.30104261e-18
      1.30104261e-18 1.30104261e-18 1.30104261e-18 -1.69250736e-04
      1.30104261e-18 1.30104261e-18 1.30104261e-18 -1.69250736e-04
      1.30104261e-18 1.67143526e-06 7.74938144e-06 7.74938144e-06
      7.74938144e-06 7.74938144e-06 6.07794664e-06 1.30104261e-18
      1.30104261e-18 1.30104261e-18 1.30104261e-18 1.30104261e-18
      1.30104261e-18 1.30104261e-18 -2.76546575e-06 1.30104261e-18
      1.30104261e-18 1.30104261e-18 1.30104261e-18 -2.76546575e-06
      1.30104261e-18 1.30104261e-18 1.30104261e-18 1.30104261e-18
      1.30104261e-18 1.30104261e-18 1.30104261e-18 1.30104261e-18
      1.30104261e-18 1.30104261e-18 1.30104261e-18 1.30104261e-18
      1.30104261e-18 1.30104261e-18 1.30104261e-18 1.30104261e-18
      1.30104261e-18 1.30104261e-18 1.30104261e-18 1.30104261e-18
      1.30104261e-18 1.30104261e-18 1.30104261e-18 1.30104261e-18
      1.30104261e-18 -1.69250736e-04 1.30104261e-18 1.30104261e-18
      1.30104261e-18 -1.69250736e-04 1.30104261e-18 1.67143526e-06
      7.74938144e-06 7.74938144e-06 7.74938144e-06 7.74938144e-06
      6.07794664e-06 1.30104261e-18 1.30104261e-18 1.30104261e-18
      1.30104261e-18 1.30104261e-18 1.30104261e-18 1.30104261e-18
      -2.76546575e-06 1.30104261e-18 1.30104261e-18 1.30104261e-18
      1.30104261e-18 -2.76546575e-06 1.30104261e-18 1.30104261e-18
      1.30104261e-18 1.30104261e-18 1.30104261e-18 1.30104261e-18
      1.30104261e-18 1.30104261e-18 1.30104261e-18 1.30104261e-18
      1.30104261e-18 1.30104261e-18 1.30104261e-18 1.30104261e-18
      1.30104261e-18 1.30104261e-18 1.30104261e-18 1.30104261e-18
      1.30104261e-18 1.30104261e-18 1.30104261e-18 1.30104261e-18
      1.30104261e-18 1.30104261e-18 -1.09733992e-04 -6.13766388e-05
      1.30104261e-18 1.30104261e-18 1.30104261e-18 -1.69250736e-04
      1.30104261e-18 1.67143526e-06 7.74938144e-06 7.74938144e-06
      7.74938144e-06 7.74938144e-06 6.07794664e-06 1.30104261e-18
      1.30104261e-18 1.30104261e-18 1.30104261e-18 1.30104261e-18
      1.30104261e-18 1.30104261e-18 -2.76546575e-06 1.30104261e-18
      1.30104261e-18 1.30104261e-18 -1.15240655e-05 8.75860042e-06
      1.30104261e-18 1.30104261e-18 1.30104261e-18 1.30104261e-18
      1.30104261e-18 1.30104261e-18 1.30104261e-18 1.30104261e-18
      1.30104261e-18 1.30104261e-18 1.30104261e-18 1.30104261e-18
      1.30104261e-18 1.30104261e-18 1.30104261e-18 1.30104261e-18
      1.30104261e-18 1.30104261e-18 1.30104261e-18 1.30104261e-18
      1.30104261e-18 1.30104261e-18 1.30104261e-18 1.30104261e-18
      -1.69250736e-04 1.30104261e-18 1.30104261e-18 1.30104261e-18
      1.30104261e-18 -1.69250736e-04 1.30104261e-18 1.67143526e-06
      7.74938144e-06 7.74938144e-06 7.74938144e-06 7.74938144e-06
      6.07794664e-06 1.30104261e-18 1.30104261e-18 1.30104261e-18
      1.30104261e-18 1.30104261e-18 1.30104261e-18 1.30104261e-18
      -2.76546575e-06 1.30104261e-18 1.30104261e-18 1.30104261e-18
      -5.47015190e-07 -2.21845039e-06 1.30104261e-18 1.30104261e-18
      1.30104261e-18 1.30104261e-18 1.30104261e-18 1.30104261e-18
      1.30104261e-18 1.30104261e-18 1.30104261e-18 1.30104261e-18
      1.30104261e-18 1.30104261e-18 1.30104261e-18 1.30104261e-18
      1.30104261e-18 1.30104261e-18 1.30104261e-18 1.30104261e-18
      1.30104261e-18 1.30104261e-18 1.30104261e-18 1.30104261e-18
      1.30104261e-18 1.30104261e-18 -1.69250736e-04 1.30104261e-18
      1.30104261e-18 1.30104261e-18 1.30104261e-18 -1.69250736e-04
      1.30104261e-18 1.67143526e-06 7.74938144e-06 7.74938144e-06
      7.74938144e-06 7.74938144e-06 6.07794664e-06 1.30104261e-18
      1.30104261e-18 1.30104261e-18 1.30104261e-18 1.30104261e-18
      1.30104261e-18 1.30104261e-18 -2.76546575e-06 1.30104261e-18
      1.30104261e-18 1.30104261e-18 -5.47015190e-07 -2.21845039e-06
      1.30104261e-18 1.30104261e-18 1.30104261e-18 1.30104261e-18
      1.30104261e-18 1.30104261e-18 1.30104261e-18 1.30104261e-18
      1.30104261e-18 1.30104261e-18 1.30104261e-18 1.30104261e-18
      1.30104261e-18 1.30104261e-18 1.30104261e-18 1.30104261e-18
      1.30104261e-18 1.30104261e-18 1.30104261e-18 1.30104261e-18
      1.30104261e-18 1.30104261e-18 1.30104261e-18 1.30104261e-18
      -1.69250736e-04 1.30104261e-18 1.30104261e-18 1.30104261e-18
      1.30104261e-18 -1.69250736e-04 1.30104261e-18 1.67143526e-06
      7.74938144e-06 7.74938144e-06 7.74938144e-06 7.74938144e-06
      6.07794664e-06 1.30104261e-18 1.30104261e-18 1.30104261e-18
      1.30104261e-18 1.30104261e-18 1.30104261e-18 1.30104261e-18
      -2.76546575e-06 1.30104261e-18 1.30104261e-18 1.30104261e-18
      -5.47015190e-07 -2.21845039e-06 1.30104261e-18 1.30104261e-18
      1.30104261e-18 1.30104261e-18 1.30104261e-18 1.30104261e-18
      1.30104261e-18 1.30104261e-18 1.30104261e-18 1.30104261e-18
      1.30104261e-18 1.30104261e-18 1.30104261e-18 1.30104261e-18
      1.30104261e-18 1.30104261e-18 1.30104261e-18 1.30104261e-18
      1.30104261e-18 1.30104261e-18 1.30104261e-18 1.30104261e-18
      1.30104261e-18 1.30104261e-18 -1.69250736e-04 1.30104261e-18
      1.30104261e-18 1.30104261e-18 1.30104261e-18 -1.69250736e-04
      1.30104261e-18 1.67143526e-06 7.74938144e-06 7.74938144e-06
      7.74938144e-06 7.74938144e-06 6.07794664e-06 1.30104261e-18
      1.30104261e-18 1.30104261e-18 1.30104261e-18 1.30104261e-18
      1.30104261e-18 1.30104261e-18 -2.76546575e-06 1.30104261e-18
      1.30104261e-18 1.30104261e-18 -5.47015190e-07 -2.21845039e-06
      1.30104261e-18 1.30104261e-18 1.30104261e-18 1.30104261e-18
      1.30104261e-18 1.30104261e-18 1.30104261e-18 1.30104261e-18
      1.30104261e-18 1.30104261e-18 1.30104261e-18 1.30104261e-18
      1.30104261e-18 1.30104261e-18 1.30104261e-18 1.30104261e-18
      1.30104261e-18 1.30104261e-18 1.30104261e-18 1.30104261e-18
      1.30104261e-18 1.30104261e-18 1.30104261e-18 1.30104261e-18
      -1.69250736e-04 1.30104261e-18 1.30104261e-18 1.30104261e-18
      1.30104261e-18 -1.69250736e-04 1.30104261e-18 1.67143526e-06
      7.74938144e-06 7.74938144e-06 7.74938144e-06 7.74938144e-06
      6.07794664e-06 1.30104261e-18 1.30104261e-18 1.30104261e-18
      1.30104261e-18 1.30104261e-18 1.30104261e-18 1.30104261e-18
      -2.76546575e-06 1.30104261e-18 1.30104261e-18 1.30104261e-18
      -5.47015190e-07 -2.21845039e-06 1.30104261e-18 1.30104261e-18
      1.30104261e-18 1.30104261e-18 1.30104261e-18 1.30104261e-18
      1.30104261e-18 1.30104261e-18 1.30104261e-18 1.30104261e-18
      1.30104261e-18 1.30104261e-18 1.30104261e-18 1.30104261e-18
      1.30104261e-18 1.30104261e-18 1.30104261e-18 1.30104261e-18
      1.30104261e-18 1.30104261e-18 1.30104261e-18 1.30104261e-18
      1.30104261e-18 1.30104261e-18 -1.69250736e-04 1.30104261e-18
      1.30104261e-18 1.30104261e-18 1.30104261e-18 -1.69250736e-04
      1.30104261e-18 1.67143526e-06 7.74938144e-06 7.74938144e-06
      7.74938144e-06 7.74938144e-06 6.07794664e-06 1.30104261e-18
      1.30104261e-18 1.30104261e-18 1.30104261e-18 1.30104261e-18
      1.30104261e-18 1.30104261e-18 -2.76546575e-06 1.30104261e-18
      1.30104261e-18 1.30104261e-18 -5.47015190e-07 -2.21845039e-06
      1.30104261e-18 1.30104261e-18 1.30104261e-18 1.30104261e-18
      1.30104261e-18 1.30104261e-18 1.30104261e-18 1.30104261e-18
      1.30104261e-18 1.30104261e-18 1.30104261e-18 1.30104261e-18
      1.30104261e-18 1.30104261e-18 1.30104261e-18 1.30104261e-18
      1.30104261e-18 1.30104261e-18 1.30104261e-18 1.30104261e-18
      1.30104261e-18 1.30104261e-18 1.30104261e-18 1.30104261e-18
      -1.69250736e-04 1.30104261e-18 1.30104261e-18 1.30104261e-18
      1.30104261e-18 -1.69250736e-04 1.30104261e-18 3.03897332e-06
      7.74938144e-06 7.74938144e-06 7.74938144e-06 7.74938144e-06
      6.07794664e-06 1.30104261e-18 1.30104261e-18 1.30104261e-18
      1.30104261e-18 1.30104261e-18 1.30104261e-18 1.30104261e-18
      -2.76546575e-06 1.30104261e-18 1.30104261e-18 1.30104261e-18
      -5.47015190e-07 -2.21845039e-06 1.30104261e-18 1.30104261e-18
      1.30104261e-18 1.30104261e-18 1.30104261e-18 1.30104261e-18
      1.30104261e-18 1.30104261e-18 1.30104261e-18 1.30104261e-18
      1.30104261e-18 1.30104261e-18 1.30104261e-18 1.30104261e-18
      1.30104261e-18 1.30104261e-18 1.30104261e-18 1.30104261e-18
      1.30104261e-18 1.30104261e-18 1.30104261e-18 1.30104261e-18
      1.30104261e-18 1.30104261e-18 -1.69250736e-04 1.30104261e-18
      1.30104261e-18 1.30104261e-18 1.30104261e-18 -1.69250736e-04
      1.30104261e-18 4.43690078e-06 7.74938144e-06 7.74938144e-06
      7.74938144e-06 7.74938144e-06 4.89274680e-06 1.30104261e-18
      1.30104261e-18 1.30104261e-18 1.30104261e-18 1.30104261e-18
      1.30104261e-18 1.30104261e-18 -2.76546575e-06 1.30104261e-18
      1.30104261e-18 1.30104261e-18 -5.47015190e-07 -2.21845039e-06
      1.30104261e-18 1.30104261e-18 1.30104261e-18 1.30104261e-18
      1.30104261e-18 1.30104261e-18 1.30104261e-18 1.30104261e-18
      1.30104261e-18 1.30104261e-18 1.30104261e-18 1.30104261e-18
      1.30104261e-18 1.30104261e-18 1.30104261e-18 1.30104261e-18
      1.30104261e-18 1.30104261e-18 1.30104261e-18 1.30104261e-18
      1.30104261e-18 1.30104261e-18 1.30104261e-18 1.30104261e-18
      -1.69250736e-04 1.30104261e-18 1.30104261e-18 1.30104261e-18
      1.30104261e-18 -1.69250736e-04 1.30104261e-18 4.43690078e-06
      7.74938144e-06 7.74938144e-06 7.74938144e-06 7.74938144e-06
      3.31248089e-06 1.30104261e-18 1.30104261e-18 1.30104261e-18
      1.30104261e-18 1.30104261e-18 1.30104261e-18 -1.13721171e-05
      1.04361598e-05 1.30104261e-18 1.30104261e-18 1.30104261e-18
      -5.47015190e-07 -2.21845039e-06 1.30104261e-18 1.30104261e-18
      1.30104261e-18 1.30104261e-18 1.30104261e-18 1.30104261e-18
      1.30104261e-18 1.30104261e-18 1.30104261e-18 1.30104261e-18
      1.30104261e-18 1.30104261e-18 1.30104261e-18 1.30104261e-18
      1.30104261e-18 1.30104261e-18 1.30104261e-18 1.30104261e-18
      1.30104261e-18 1.30104261e-18 1.30104261e-18 1.30104261e-18
      1.30104261e-18 1.30104261e-18 -1.69250736e-04 1.30104261e-18
      1.30104261e-18 1.30104261e-18 1.30104261e-18 -1.69250736e-04
      1.30104261e-18 4.43690078e-06 7.74938144e-06 7.74938144e-06
      7.74938144e-06 7.74938144e-06 3.31248089e-06 1.30104261e-18
      1.30104261e-18 1.30104261e-18 1.30104261e-18 1.30104261e-18
      1.30104261e-18 8.75247588e-06 -1.15179409e-05 1.30104261e-18
      1.30104261e-18 1.30104261e-18 -4.95425520e-05 4.67770842e-05
      1.30104261e-18 1.30104261e-18 1.30104261e-18 1.30104261e-18
      1.30104261e-18 1.30104261e-18 1.30104261e-18 1.30104261e-18
      1.30104261e-18 1.30104261e-18 1.30104261e-18 1.30104261e-18
      1.30104261e-18 1.30104261e-18 1.30104261e-18 1.30104261e-18
      1.30104261e-18 1.30104261e-18 1.30104261e-18 1.30104261e-18
      1.30104261e-18 1.30104261e-18 1.30104261e-18 1.30104261e-18
      -1.30192866e-05 -1.58091338e-04 1.30104261e-18 1.30104261e-18
      -1.09733992e-04 -6.13766388e-05 1.30104261e-18 4.43690078e-06
      7.74938144e-06 7.74938144e-06 7.74938144e-06 7.74938144e-06
      3.31248089e-06 1.30104261e-18 1.30104261e-18 1.30104261e-18
      1.30104261e-18 1.30104261e-18 1.30104261e-18 1.82950839e-06
      3.07430892e-05 -3.71979622e-05 1.30104261e-18 -5.02172516e-05
      1.21137191e-05 1.30104261e-18 1.30104261e-18 1.30104261e-18
      1.30104261e-18 1.30104261e-18 1.30104261e-18 1.30104261e-18
      1.30104261e-18 1.30104261e-18 1.30104261e-18 1.30104261e-18
      1.30104261e-18 1.30104261e-18 1.30104261e-18 1.30104261e-18
      1.30104261e-18 1.30104261e-18 1.30104261e-18 1.30104261e-18
      1.30104261e-18 1.30104261e-18 1.30104261e-18 1.30104261e-18
      1.30104261e-18 1.30104261e-18 1.30104261e-18 -7.25360296e-05
      -1.11593887e-04 -1.54371548e-04 -6.13766388e-05 1.30104261e-18
      1.30104261e-18 1.21558935e-06 6.80730000e-06 7.74938144e-06
      7.74938144e-06 7.44548470e-06 1.85377371e-06 1.30104261e-18
      1.30104261e-18 1.30104261e-18 1.30104261e-18 1.30104261e-18
      1.30104261e-18 1.30104261e-18 2.37836102e-05 3.30046441e-06
      -7.84196163e-05 3.28157184e-05 4.54945912e-05 1.30104261e-18
      1.30104261e-18 1.30104261e-18 1.30104261e-18 1.30104261e-18
      1.30104261e-18 1.30104261e-18 1.30104261e-18 1.30104261e-18
      1.30104261e-18 1.30104261e-18 1.30104261e-18 1.30104261e-18
      1.30104261e-18 1.30104261e-18 1.30104261e-18 1.30104261e-18
      1.30104261e-18 1.30104261e-18 1.30104261e-18 1.30104261e-18
      1.30104261e-18 1.30104261e-18 1.30104261e-18 1.30104261e-18
      1.30104261e-18 1.30104261e-18 -6.50964357e-05 -1.85989811e-05
      1.30104261e-18 1.30104261e-18 1.30104261e-18 1.30104261e-18
      1.21558935e-06 6.83768985e-06 6.35145398e-06 1.18519961e-06
      1.30104261e-18 1.30104261e-18 1.30104261e-18 1.30104261e-18
      1.30104261e-18 1.30104261e-18 1.30104261e-18 1.30104261e-18
      1.30104261e-18 2.92721343e-05 7.56541558e-05 1.46360671e-05
      1.30104261e-18 1.30104261e-18 1.30104261e-18 1.30104261e-18
      1.30104261e-18 1.30104261e-18 1.30104261e-18 1.30104261e-18
      1.30104261e-18 1.30104261e-18 1.30104261e-18 1.30104261e-18
      1.30104261e-18 1.30104261e-18 1.30104261e-18 1.30104261e-18
      1.30104261e-18 1.30104261e-18 1.30104261e-18 1.30104261e-18
      1.30104261e-18 1.30104261e-18 1.30104261e-18 1.30104261e-18
      1.30104261e-18 1.30104261e-18 1.30104261e-18 1.30104261e-18
      -1.50651744e-04 -1.39492360e-04 1.30104261e-18 1.30104261e-18
      1.30104261e-18 1.30104261e-18 1.30104261e-18 9.42081726e-07
      6.38184417e-07 1.30104261e-18 1.30104261e-18 1.30104261e-18
      1.30104261e-18 1.30104261e-18 1.30104261e-18 1.30104261e-18
      1.30104261e-18 1.30104261e-18 1.30104261e-18 1.30104261e-18
      -6.29569040e-05 -6.17717087e-05 1.30104261e-18 1.30104261e-18
      1.30104261e-18 1.30104261e-18 1.30104261e-18 1.30104261e-18
      1.30104261e-18 1.30104261e-18 1.30104261e-18 1.30104261e-18
      1.30104261e-18 1.30104261e-18 1.30104261e-18 1.30104261e-18
      1.30104261e-18 1.30104261e-18 1.30104261e-18 1.30104261e-18
      1.30104261e-18 1.30104261e-18 1.30104261e-18 1.30104261e-18
      1.30104261e-18 1.30104261e-18 1.30104261e-18 1.30104261e-18
      1.30104261e-18 -1.58091338e-04 -1.30192866e-05 -2.41786765e-05
      -1.45072059e-04 1.30104261e-18 1.30104261e-18 1.30104261e-18
      1.30104261e-18 1.15480987e-06 2.21845039e-06 1.30104261e-18
      1.30104261e-18 1.30104261e-18 1.30104261e-18 1.30104261e-18
      1.30104261e-18 1.30104261e-18 1.30104261e-18 1.30104261e-18
      -4.83573531e-05 -2.65490744e-05 5.83315414e-05 2.69929042e-05
      -2.97583701e-05 1.30104261e-18 1.30104261e-18 1.30104261e-18
      1.30104261e-18 1.30104261e-18 1.30104261e-18 1.30104261e-18
      1.30104261e-18 1.30104261e-18 1.30104261e-18 1.30104261e-18
      1.30104261e-18 1.30104261e-18 1.30104261e-18 1.30104261e-18
      1.30104261e-18 1.30104261e-18 1.30104261e-18 1.30104261e-18
      1.30104261e-18 1.30104261e-18 1.30104261e-18 1.30104261e-18
      1.30104261e-18 1.30104261e-18 -1.58091338e-04 -1.30192866e-05
      1.30104261e-18 1.30104261e-18 -2.41786765e-05 -1.45072059e-04
      1.30104261e-18 9.11691984e-08 3.09975280e-06 6.83768985e-06
      7.53665381e-06 2.18806076e-06 1.30104261e-18 1.30104261e-18
      1.30104261e-18 1.30104261e-18 1.30104261e-18 1.30104261e-18
      1.30104261e-18 -1.12809475e-05 -2.46156833e-06 2.37836102e-05
      1.30104261e-18 3.10104733e-05 -3.19464307e-05 1.30104261e-18
      1.30104261e-18 1.30104261e-18 1.30104261e-18 1.30104261e-18
      1.30104261e-18 1.30104261e-18 1.30104261e-18 1.30104261e-18
      1.30104261e-18 1.30104261e-18 1.30104261e-18 1.30104261e-18
      1.30104261e-18 1.30104261e-18 1.30104261e-18 1.30104261e-18
      1.30104261e-18 1.30104261e-18 1.30104261e-18 1.30104261e-18
      1.30104261e-18 1.30104261e-18 1.30104261e-18 1.30104261e-18
      -1.69250736e-04 1.30104261e-18 1.30104261e-18 1.30104261e-18
      -1.67390826e-05 -1.52511653e-04 1.30104261e-18 3.09975280e-06
      7.62782292e-06 7.74938144e-06 7.74938144e-06 7.44548470e-06
      1.85377371e-06 1.30104261e-18 1.30104261e-18 1.30104261e-18
      1.30104261e-18 1.30104261e-18 1.30104261e-18 -5.47015190e-07
      -2.21845039e-06 1.30104261e-18 1.30104261e-18 1.30104261e-18
      -2.76546575e-06 1.30104261e-18 1.30104261e-18 1.30104261e-18
      1.30104261e-18 1.30104261e-18 1.30104261e-18 1.30104261e-18
      1.30104261e-18 1.30104261e-18 1.30104261e-18 1.30104261e-18
      1.30104261e-18 1.30104261e-18 1.30104261e-18 1.30104261e-18
      1.30104261e-18 1.30104261e-18 1.30104261e-18 1.30104261e-18
      1.30104261e-18 1.30104261e-18 1.30104261e-18 1.30104261e-18
      1.30104261e-18 1.30104261e-18 -1.69250736e-04 1.30104261e-18
      1.30104261e-18 1.30104261e-18 -3.34781653e-05 -1.35772571e-04
      1.30104261e-18 4.43690078e-06 7.74938144e-06 7.74938144e-06
      7.74938144e-06 7.74938144e-06 3.31248089e-06 1.30104261e-18
      1.30104261e-18 1.30104261e-18 1.30104261e-18 1.30104261e-18
      1.30104261e-18 -5.47015190e-07 -2.21845039e-06 1.30104261e-18
      1.30104261e-18 1.30104261e-18 -2.76546575e-06 1.30104261e-18
      1.30104261e-18 1.30104261e-18 1.30104261e-18 1.30104261e-18
      1.30104261e-18 1.30104261e-18 1.30104261e-18 1.30104261e-18
      1.30104261e-18 1.30104261e-18 1.30104261e-18 1.30104261e-18
      1.30104261e-18 1.30104261e-18 1.30104261e-18 1.30104261e-18
      1.30104261e-18 1.30104261e-18 1.30104261e-18 1.30104261e-18
      1.30104261e-18 1.30104261e-18 1.30104261e-18 1.30104261e-18
      -1.69250736e-04 1.30104261e-18 1.30104261e-18 1.30104261e-18
      -3.34781653e-05 -1.35772571e-04 1.30104261e-18 4.43690078e-06
      7.74938144e-06 7.74938144e-06 7.74938144e-06 7.74938144e-06
      3.31248089e-06 1.30104261e-18 1.30104261e-18 1.30104261e-18
      1.30104261e-18 1.30104261e-18 1.30104261e-18 -5.47015190e-07
      -2.21845039e-06 1.30104261e-18 1.30104261e-18 1.30104261e-18
      -2.76546575e-06 1.30104261e-18 1.30104261e-18 1.30104261e-18
      1.30104261e-18 1.30104261e-18 1.30104261e-18 1.30104261e-18
      1.30104261e-18 1.30104261e-18 1.30104261e-18 1.30104261e-18
      1.30104261e-18 1.30104261e-18 1.30104261e-18 1.30104261e-18
      1.30104261e-18 1.30104261e-18 1.30104261e-18 1.30104261e-18
      1.30104261e-18 1.30104261e-18 1.30104261e-18 1.30104261e-18
      1.30104261e-18 1.30104261e-18 -1.69250736e-04 1.30104261e-18
      1.30104261e-18 1.30104261e-18 -3.34781653e-05 -1.35772571e-04
      1.30104261e-18 4.43690078e-06 7.74938144e-06 7.74938144e-06
      7.74938144e-06 7.74938144e-06 3.31248089e-06 1.30104261e-18
      1.30104261e-18 1.30104261e-18 1.30104261e-18 1.30104261e-18
      1.30104261e-18 -5.47015190e-07 -2.21845039e-06 1.30104261e-18
      1.30104261e-18 1.30104261e-18 -2.76546575e-06 1.30104261e-18
      1.30104261e-18 1.30104261e-18 1.30104261e-18 1.30104261e-18
      1.30104261e-18 1.30104261e-18 1.30104261e-18 1.30104261e-18
      1.30104261e-18 1.30104261e-18 1.30104261e-18 1.30104261e-18
      1.30104261e-18 1.30104261e-18 1.30104261e-18 1.30104261e-18
      1.30104261e-18 1.30104261e-18 1.30104261e-18 1.30104261e-18
      1.30104261e-18 1.30104261e-18 1.30104261e-18 1.30104261e-18
      -1.69250736e-04 1.30104261e-18 1.30104261e-18 1.30104261e-18
      -3.34781653e-05 -1.35772571e-04 1.30104261e-18 4.43690078e-06
      7.74938144e-06 7.74938144e-06 7.74938144e-06 7.74938144e-06
      3.31248089e-06 1.30104261e-18 1.30104261e-18 1.30104261e-18
      1.30104261e-18 1.30104261e-18 1.30104261e-18 -5.47015190e-07
      -2.21845039e-06 1.30104261e-18 1.30104261e-18 1.30104261e-18
      -2.76546575e-06 1.30104261e-18 1.30104261e-18 1.30104261e-18
      1.30104261e-18 1.30104261e-18 1.30104261e-18 1.30104261e-18
      1.30104261e-18 1.30104261e-18 1.30104261e-18 1.30104261e-18
      1.30104261e-18 1.30104261e-18 1.30104261e-18 1.30104261e-18
      1.30104261e-18 1.30104261e-18 1.30104261e-18 1.30104261e-18
      1.30104261e-18 1.30104261e-18 1.30104261e-18 1.30104261e-18
      1.30104261e-18 1.30104261e-18 -1.69250736e-04 1.30104261e-18
      1.30104261e-18 1.30104261e-18 -3.34781653e-05 -1.35772571e-04
      1.30104261e-18 4.43690078e-06 7.74938144e-06 7.74938144e-06
      7.74938144e-06 7.74938144e-06 3.31248089e-06 1.30104261e-18
      1.30104261e-18 1.30104261e-18 1.30104261e-18 1.30104261e-18
      1.30104261e-18 -5.47015190e-07 -2.21845039e-06 1.30104261e-18
      1.30104261e-18 1.30104261e-18 -2.76546575e-06 1.30104261e-18
      1.30104261e-18 1.30104261e-18 1.30104261e-18 1.30104261e-18
      1.30104261e-18 1.30104261e-18 1.30104261e-18 1.30104261e-18
      1.30104261e-18 1.30104261e-18 1.30104261e-18 1.30104261e-18
      1.30104261e-18 1.30104261e-18 1.30104261e-18 1.30104261e-18
      1.30104261e-18 1.30104261e-18 1.30104261e-18 1.30104261e-18
      1.30104261e-18 1.30104261e-18 1.30104261e-18 1.30104261e-18
      -1.69250736e-04 1.30104261e-18 1.30104261e-18 1.30104261e-18
      -3.34781653e-05 -1.35772571e-04 1.30104261e-18 4.43690078e-06
      7.74938144e-06 7.74938144e-06 7.74938144e-06 7.74938144e-06
      3.31248089e-06 1.30104261e-18 1.30104261e-18 1.30104261e-18
      1.30104261e-18 1.30104261e-18 1.30104261e-18 -5.47015190e-07
      -2.21845039e-06 1.30104261e-18 1.30104261e-18 1.30104261e-18
      -2.76546575e-06 1.30104261e-18 1.30104261e-18 1.30104261e-18
      1.30104261e-18 1.30104261e-18 1.30104261e-18 1.30104261e-18
      1.30104261e-18 1.30104261e-18 1.30104261e-18 1.30104261e-18
      1.30104261e-18 1.30104261e-18 1.30104261e-18 1.30104261e-18
      1.30104261e-18 1.30104261e-18 1.30104261e-18 1.30104261e-18
      1.30104261e-18 1.30104261e-18 1.30104261e-18 1.30104261e-18
      1.30104261e-18 1.30104261e-18 -1.69250736e-04 1.30104261e-18
      1.30104261e-18 1.30104261e-18 -3.34781653e-05 -1.35772571e-04
      1.30104261e-18 5.40937253e-06 7.74938144e-06 7.74938144e-06
      7.74938144e-06 7.74938144e-06 3.31248089e-06 1.30104261e-18
      1.30104261e-18 1.30104261e-18 1.30104261e-18 1.30104261e-18
      1.30104261e-18 -5.47015190e-07 -2.21845039e-06 1.30104261e-18
      1.30104261e-18 1.30104261e-18 -2.76546575e-06 1.30104261e-18
      1.30104261e-18 1.30104261e-18 1.30104261e-18 1.30104261e-18
      1.30104261e-18 1.30104261e-18 1.30104261e-18 1.30104261e-18
      1.30104261e-18 1.30104261e-18 1.30104261e-18 1.30104261e-18
      1.30104261e-18 1.30104261e-18 1.30104261e-18 1.30104261e-18
      1.30104261e-18 1.30104261e-18 1.30104261e-18 1.30104261e-18
      1.30104261e-18 1.30104261e-18 1.30104261e-18 1.30104261e-18
      -1.69250736e-04 1.30104261e-18 1.30104261e-18 1.30104261e-18
      -3.34781653e-05 -1.35772571e-04 1.30104261e-18 7.20236676e-06
      7.74938144e-06 7.74938144e-06 7.74938144e-06 7.74938144e-06
      1.54987640e-06 1.30104261e-18 1.30104261e-18 1.30104261e-18
      1.30104261e-18 1.30104261e-18 1.30104261e-18 -5.47015190e-07
      -2.21845039e-06 1.30104261e-18 1.30104261e-18 1.30104261e-18
      -2.76546575e-06 1.30104261e-18 1.30104261e-18 1.30104261e-18
      1.30104261e-18 1.30104261e-18 1.30104261e-18 1.30104261e-18
      1.30104261e-18 1.30104261e-18 1.30104261e-18 1.30104261e-18
      1.30104261e-18 1.30104261e-18 1.30104261e-18 1.30104261e-18
      1.30104261e-18 1.30104261e-18 1.30104261e-18 1.30104261e-18
      1.30104261e-18 1.30104261e-18 1.30104261e-18 1.30104261e-18
      1.30104261e-18 1.30104261e-18 -1.69250736e-04 1.30104261e-18
      1.30104261e-18 1.30104261e-18 -3.34781653e-05 -1.35772571e-04
      1.30104261e-18 7.20236676e-06 7.74938144e-06 7.74938144e-06
      7.74938144e-06 7.74938144e-06 5.47015190e-07 1.30104261e-18
      1.30104261e-18 1.30104261e-18 1.30104261e-18 1.30104261e-18
      1.30104261e-18 -4.93906009e-05 4.66251367e-05 1.30104261e-18
      1.30104261e-18 1.30104261e-18 -2.76546575e-06 1.30104261e-18
      1.30104261e-18 1.30104261e-18 1.30104261e-18 1.30104261e-18
      1.30104261e-18 1.30104261e-18 1.30104261e-18 1.30104261e-18
      1.30104261e-18 1.30104261e-18 1.30104261e-18 1.30104261e-18
      1.30104261e-18 1.30104261e-18 1.30104261e-18 1.30104261e-18
      1.30104261e-18 1.30104261e-18 1.30104261e-18 1.30104261e-18
      1.30104261e-18 1.30104261e-18 1.30104261e-18 -2.97583701e-05
      -1.39492360e-04 1.30104261e-18 1.30104261e-18 1.30104261e-18
      -5.39370449e-05 -1.15313684e-04 1.30104261e-18 7.20236676e-06
      7.74938144e-06 7.74938144e-06 7.74938144e-06 7.74938144e-06
      5.47015190e-07 1.30104261e-18 1.30104261e-18 1.30104261e-18
      1.30104261e-18 1.30104261e-18 1.30104261e-18 -2.76546575e-06
      1.30104261e-18 1.30104261e-18 1.30104261e-18 1.30104261e-18
      -2.76546575e-06 1.30104261e-18 1.30104261e-18 1.30104261e-18
      1.30104261e-18 1.30104261e-18 1.30104261e-18 1.30104261e-18
      1.30104261e-18 1.30104261e-18 1.30104261e-18 1.30104261e-18
      1.30104261e-18 1.30104261e-18 1.30104261e-18 1.30104261e-18
      1.30104261e-18 1.30104261e-18 1.30104261e-18 1.30104261e-18
      1.30104261e-18 1.30104261e-18 1.30104261e-18 1.30104261e-18
      1.30104261e-18 -3.34781653e-05 -1.35772571e-04 1.30104261e-18
      1.30104261e-18 1.30104261e-18 -1.69250736e-04 1.30104261e-18
      1.30104261e-18 7.20236676e-06 7.74938144e-06 7.74938144e-06
      7.74938144e-06 7.74938144e-06 5.47015190e-07 1.30104261e-18
      1.30104261e-18 1.30104261e-18 1.30104261e-18 1.30104261e-18
      1.30104261e-18 -2.76546575e-06 1.30104261e-18 1.30104261e-18
      1.30104261e-18 1.30104261e-18 -2.76546575e-06 1.30104261e-18
      1.30104261e-18 1.30104261e-18 1.30104261e-18 1.30104261e-18
      1.30104261e-18 1.30104261e-18 1.30104261e-18 1.30104261e-18
      1.30104261e-18 1.30104261e-18 1.30104261e-18 1.30104261e-18
      1.30104261e-18 1.30104261e-18 1.30104261e-18 1.30104261e-18
      1.30104261e-18 1.30104261e-18 1.30104261e-18 1.30104261e-18
      1.30104261e-18 1.30104261e-18 1.30104261e-18 -3.34781653e-05
      -1.35772571e-04 1.30104261e-18 1.30104261e-18 1.30104261e-18
      -1.69250736e-04 1.30104261e-18 1.30104261e-18 7.20236676e-06
      7.74938144e-06 7.74938144e-06 7.74938144e-06 7.74938144e-06
      5.47015190e-07 1.30104261e-18 1.30104261e-18 1.30104261e-18
      1.30104261e-18 1.30104261e-18 1.30104261e-18 -2.76546575e-06
      1.30104261e-18 1.30104261e-18 1.30104261e-18 1.30104261e-18
      -2.76546575e-06 1.30104261e-18 1.30104261e-18 1.30104261e-18
      1.30104261e-18 1.30104261e-18 1.30104261e-18 1.30104261e-18
      1.30104261e-18 1.30104261e-18 1.30104261e-18 1.30104261e-18
      1.30104261e-18 1.30104261e-18 1.30104261e-18 1.30104261e-18
      1.30104261e-18 1.30104261e-18 1.30104261e-18 1.30104261e-18
      1.30104261e-18 1.30104261e-18 1.30104261e-18 1.30104261e-18
      1.30104261e-18 -2.41786765e-05 -1.45072059e-04 1.30104261e-18
      1.30104261e-18 1.30104261e-18 -1.78550225e-04 -1.35772571e-04
      -1.35772571e-04 -1.28570202e-04 -1.28023181e-04 -1.28023181e-04
      -1.28023181e-04 -1.28023181e-04 -1.35225549e-04 -1.35772571e-04
      -1.35772571e-04 -1.35772571e-04 -1.35772571e-04 -1.35772571e-04
      -1.35772571e-04 6.53402503e-06 -3.90578607e-05 1.30104261e-18
      1.30104261e-18 1.30104261e-18 -2.76546575e-06 1.30104261e-18
      1.30104261e-18 1.30104261e-18 1.30104261e-18 1.30104261e-18
      1.30104261e-18 1.30104261e-18 1.30104261e-18 1.30104261e-18
      1.30104261e-18 1.30104261e-18 1.30104261e-18 1.30104261e-18
      1.30104261e-18 1.30104261e-18 1.30104261e-18 1.30104261e-18
      1.30104261e-18 1.30104261e-18 1.30104261e-18 1.30104261e-18
      1.30104261e-18 1.30104261e-18 1.30104261e-18 1.30104261e-18
      -7.25360296e-05 -9.67147062e-05 1.30104261e-18 -1.20893383e-04
      -1.59951247e-04 -8.18355184e-05 -3.34781653e-05 -2.68835938e-05
      -2.57287847e-05 -2.57287847e-05 -2.57287847e-05 -2.57287847e-05
      -3.29311515e-05 -3.34781653e-05 -3.34781653e-05 -3.34781653e-05
      -3.34781653e-05 -3.34781653e-05 -3.34781653e-05 -1.13848851e-04
      -1.72495838e-05 -3.71979622e-05 -2.23187781e-05 -6.48168061e-05
      5.95836427e-05 1.30104261e-18 1.30104261e-18 1.30104261e-18
      1.30104261e-18 1.30104261e-18 1.30104261e-18 1.30104261e-18
      1.30104261e-18 1.30104261e-18 1.30104261e-18 1.30104261e-18
      1.30104261e-18 1.30104261e-18 1.30104261e-18 1.30104261e-18
      1.30104261e-18 1.30104261e-18 1.30104261e-18 1.30104261e-18
      1.30104261e-18 1.30104261e-18 1.30104261e-18 1.30104261e-18
      1.30104261e-18 1.30104261e-18 1.30104261e-18 -7.25360296e-05
      -1.69250736e-04 -1.58091338e-04 -6.13766388e-05 1.30104261e-18
      1.30104261e-18 3.09975280e-06 7.62782292e-06 7.74938144e-06
      7.35431513e-06 4.07222433e-06 9.11691984e-08 1.30104261e-18
      1.30104261e-18 1.30104261e-18 1.30104261e-18 1.30104261e-18
      1.30104261e-18 -5.57969452e-06 -1.15708754e-04 -2.08782112e-05
      -2.25253807e-05 6.20513383e-05 1.30104261e-18 1.30104261e-18
      1.30104261e-18 1.30104261e-18 1.30104261e-18 1.30104261e-18
      1.30104261e-18 1.30104261e-18 1.30104261e-18 1.30104261e-18
      1.30104261e-18 1.30104261e-18 1.30104261e-18 1.30104261e-18
      1.30104261e-18 1.30104261e-18 1.30104261e-18 1.30104261e-18
      1.30104261e-18 1.30104261e-18 1.30104261e-18 1.30104261e-18
      1.30104261e-18 1.30104261e-18 1.30104261e-18 1.30104261e-18
      1.30104261e-18 1.30104261e-18 -3.71979622e-05 -1.33912661e-04
      1.30104261e-18 1.30104261e-18 1.30104261e-18 9.11691984e-08
      3.76832691e-06 7.23275662e-06 1.85377371e-06 1.30104261e-18
      1.30104261e-18 1.30104261e-18 1.30104261e-18 1.30104261e-18
      1.30104261e-18 1.30104261e-18 1.30104261e-18 1.30104261e-18
      -1.30192866e-05 -1.28819214e-04 4.20786928e-05 1.30104261e-18
      1.30104261e-18 1.30104261e-18 1.30104261e-18 1.30104261e-18
      1.30104261e-18 1.30104261e-18 1.30104261e-18 1.30104261e-18
      1.30104261e-18 1.30104261e-18 1.30104261e-18 1.30104261e-18
      1.30104261e-18 1.30104261e-18 1.30104261e-18 1.30104261e-18
      1.30104261e-18 1.30104261e-18 1.30104261e-18 1.30104261e-18
      1.30104261e-18 1.30104261e-18 1.30104261e-18 1.30104261e-18
      1.30104261e-18 1.30104261e-18 1.30104261e-18 1.30104261e-18
      1.30104261e-18 -7.25360296e-05 -9.67147062e-05 1.30104261e-18
      1.30104261e-18 1.30104261e-18 9.11691984e-08 9.11691984e-07
      1.30104261e-18 1.30104261e-18 1.30104261e-18 1.30104261e-18
      1.30104261e-18 1.30104261e-18 1.30104261e-18 1.30104261e-18
      1.30104261e-18 -1.30192866e-05 -1.58091338e-04 1.30104261e-18
      1.30104261e-18 1.30104261e-18 1.30104261e-18 1.30104261e-18
      1.30104261e-18 1.30104261e-18 1.30104261e-18 1.30104261e-18
      1.30104261e-18 1.30104261e-18 1.30104261e-18 1.30104261e-18
      1.30104261e-18 1.30104261e-18 1.30104261e-18 1.30104261e-18
      1.30104261e-18 1.30104261e-18 1.30104261e-18 1.30104261e-18
      1.30104261e-18 1.30104261e-18 1.30104261e-18 1.30104261e-18
      1.30104261e-18 1.30104261e-18 1.30104261e-18 1.30104261e-18
      1.30104261e-18 1.30104261e-18 1.30104261e-18 1.30104261e-18
      -7.25360296e-05 -1.69250736e-04 -1.69250736e-04 -1.69250736e-04
      -1.69250736e-04 -1.69250736e-04 -1.69250736e-04 -1.69250736e-04
      -1.69250736e-04 -1.69250736e-04 -1.69250736e-04 -1.69250736e-04
      -1.69250736e-04 -1.69250736e-04 -1.69250736e-04 -1.58091338e-04
      1.30104261e-18 1.30104261e-18 1.30104261e-18 1.30104261e-18
      1.30104261e-18 1.30104261e-18 1.30104261e-18 1.30104261e-18
      1.30104261e-18 1.30104261e-18 1.30104261e-18 1.30104261e-18
      1.30104261e-18 1.30104261e-18 1.30104261e-18 1.30104261e-18
      1.30104261e-18 1.30104261e-18 1.30104261e-18 1.30104261e-18
      1.30104261e-18 1.30104261e-18 1.30104261e-18 1.30104261e-18
      1.30104261e-18 1.30104261e-18 1.30104261e-18 1.30104261e-18
      1.30104261e-18 1.30104261e-18 1.30104261e-18 1.30104261e-18
      1.30104261e-18 1.30104261e-18 1.30104261e-18 1.30104261e-18
      1.30104261e-18 1.30104261e-18 1.30104261e-18 1.30104261e-18
      1.30104261e-18 1.30104261e-18 1.30104261e-18 1.30104261e-18
      1.30104261e-18 1.30104261e-18 1.30104261e-18 1.30104261e-18
      1.30104261e-18 1.30104261e-18 1.30104261e-18 1.30104261e-18
      1.30104261e-18 1.30104261e-18 1.30104261e-18 1.30104261e-18
      1.30104261e-18 1.30104261e-18 1.30104261e-18 1.30104261e-18
      1.30104261e-18 1.30104261e-18 1.30104261e-18 1.30104261e-18
      1.30104261e-18 1.30104261e-18 1.30104261e-18 1.30104261e-18
      1.30104261e-18 1.30104261e-18 1.30104261e-18 1.30104261e-18
      1.30104261e-18 1.30104261e-18 1.30104261e-18 1.30104261e-18
      1.30104261e-18 1.30104261e-18 1.30104261e-18 1.30104261e-18
      1.30104261e-18 1.30104261e-18 1.30104261e-18 1.30104261e-18
      1.30104261e-18 1.30104261e-18 1.30104261e-18 1.30104261e-18
      1.30104261e-18 1.30104261e-18 1.30104261e-18 1.30104261e-18
      1.30104261e-18 1.30104261e-18 1.30104261e-18 1.30104261e-18
      1.30104261e-18 1.30104261e-18 1.30104261e-18 1.30104261e-18
      1.30104261e-18 1.30104261e-18 1.30104261e-18 1.30104261e-18
      1.30104261e-18 1.30104261e-18 1.30104261e-18 1.30104261e-18
      1.30104261e-18 1.30104261e-18 1.30104261e-18 1.30104261e-18
      1.30104261e-18 1.30104261e-18 1.30104261e-18 1.30104261e-18
      1.30104261e-18 1.30104261e-18 1.30104261e-18 1.30104261e-18
      1.30104261e-18 1.30104261e-18 1.30104261e-18 1.30104261e-18
      1.30104261e-18 1.30104261e-18 1.30104261e-18 1.30104261e-18
      1.30104261e-18 1.30104261e-18 1.30104261e-18 1.30104261e-18
      1.30104261e-18 1.30104261e-18 1.30104261e-18 1.30104261e-18
      1.30104261e-18 1.30104261e-18 1.30104261e-18 1.30104261e-18
      1.30104261e-18 1.30104261e-18 1.30104261e-18 1.30104261e-18
      1.30104261e-18 1.30104261e-18 1.30104261e-18 1.30104261e-18
      1.30104261e-18 1.30104261e-18 1.30104261e-18 1.30104261e-18
      1.30104261e-18 1.30104261e-18 1.30104261e-18 1.30104261e-18
      1.30104261e-18 1.30104261e-18 1.30104261e-18 1.30104261e-18
      1.30104261e-18 1.30104261e-18 1.30104261e-18 1.30104261e-18
      1.30104261e-18 1.30104261e-18 1.30104261e-18 1.30104261e-18
      1.30104261e-18 1.30104261e-18 1.30104261e-18 1.30104261e-18
      1.30104261e-18 1.30104261e-18 1.30104261e-18 1.30104261e-18
      1.30104261e-18 1.30104261e-18 1.30104261e-18 1.30104261e-18
      1.30104261e-18 1.30104261e-18 1.30104261e-18 1.30104261e-18
      1.30104261e-18 1.30104261e-18 1.30104261e-18 1.30104261e-18
      1.30104261e-18 1.30104261e-18 1.30104261e-18 1.30104261e-18
      1.30104261e-18 1.30104261e-18 1.30104261e-18 1.30104261e-18
      1.30104261e-18 1.30104261e-18 1.30104261e-18 1.30104261e-18
      1.30104261e-18 1.30104261e-18 1.30104261e-18 1.30104261e-18
      1.30104261e-18 1.30104261e-18 1.30104261e-18 1.30104261e-18
      1.30104261e-18 1.30104261e-18 1.30104261e-18 1.30104261e-18
      1.30104261e-18 1.30104261e-18 1.30104261e-18 1.30104261e-18</_>
    <_>
      2.71050543e-20 2.71050543e-20 2.71050543e-20 2.71050543e-20
      2.71050543e-20 2.71050543e-20 2.71050543e-20 2.71050543e-20
      2.71050543e-20 2.71050543e-20 2.71050543e-20 2.71050543e-20
      2.71050543e-20 2.71050543e-20 2.71050543e-20 2.71050543e-20
      2.71050543e-20 2.71050543e-20 2.71050543e-20 2.71050543e-20
      2.71050543e-20 2.71050543e-20 2.71050543e-20 2.71050543e-20
      2.71050543e-20 2.71050543e-20 2.71050543e-20 2.71050543e-20
      2.71050543e-20 2.71050543e-20 2.71050543e-20 2.71050543e-20
      2.71050543e-20 2.71050543e-20 2.71050543e-20 2.71050543e-20
      2.71050543e-20 2.71050543e-20 2.71050543e-20 2.71050543e-20
      2.71050543e-20 2.71050543e-20 2.71050543e-20 2.71050543e-20
      2.71050543e-20 2.71050543e-20 2.71050543e-20 2.71050543e-20
      2.71050543e-20 2.71050543e-20 2.71050543e-20 2.71050543e-20
      2.71050543e-20 2.71050543e-20 2.71050543e-20 2.71050543e-20
      2.71050543e-20 2.71050543e-20 2.71050543e-20 2.71050543e-20
      2.71050543e-20 2.71050543e-20 2.71050543e-20 2.71050543e-20
      2.71050543e-20 2.71050543e-20 2.71050543e-20 -2.00755585e-06
      -7.32757917e-06 -7.32757917e-06 -5.04321906e-05 -5.04321906e-05
      -5.04321906e-05 -5.04321906e-05 -5.04321906e-05 -5.04321906e-05
      -5.04321906e-05 -5.04321906e-05 -5.04321906e-05 -5.04321906e-05
      -5.04321906e-05 -5.04321906e-05 -4.97797337e-05 -4.37068775e-05
      -1.25395236e-05 2.71050543e-20 2.71050543e-20 2.71050543e-20
      2.71050543e-20 2.71050543e-20 2.71050543e-20 2.71050543e-20
      2.71050543e-20 2.71050543e-20 2.71050543e-20 2.71050543e-20
      2.71050543e-20 2.71050543e-20 2.71050543e-20 2.71050543e-20
      2.71050543e-20 2.71050543e-20 2.71050543e-20 2.71050543e-20
      2.71050543e-20 2.71050543e-20 2.71050543e-20 2.71050543e-20
      2.71050543e-20 2.71050543e-20 2.71050543e-20 2.71050543e-20
      2.71050543e-20 2.71050543e-20 2.71050543e-20 2.71050543e-20
      -5.26983422e-06 -1.16271849e-05 3.11675944e-06 -3.66864297e-05
      -6.12134227e-06 -6.12134227e-06 -6.12134227e-06 -6.12134227e-06
      -6.12134227e-06 -6.12134227e-06 -6.12134227e-06 -6.12134227e-06
      -6.12134227e-06 -6.12134227e-06 -6.12134227e-06 -6.12134227e-06
      -1.26991426e-05 -3.72981194e-05 -5.92809047e-05 -1.01883625e-05
      2.71050543e-20 2.71050543e-20 2.71050543e-20 2.71050543e-20
      2.71050543e-20 2.71050543e-20 2.71050543e-20 2.71050543e-20
      2.71050543e-20 2.71050543e-20 2.71050543e-20 2.71050543e-20
      2.71050543e-20 2.71050543e-20 2.71050543e-20 2.71050543e-20
      2.71050543e-20 2.71050543e-20 2.71050543e-20 2.71050543e-20
      2.71050543e-20 2.71050543e-20 2.71050543e-20 2.71050543e-20
      2.71050543e-20 2.71050543e-20 2.71050543e-20 2.71050543e-20
      2.71050543e-20 -5.16945647e-06 -1.23833461e-05 8.48603304e-06
      2.16645822e-06 3.12306620e-05 4.37701856e-05 4.37701856e-05
      4.37701856e-05 4.37701856e-05 4.37701856e-05 4.37701856e-05
      4.37701856e-05 4.37701856e-05 4.37701856e-05 4.37701856e-05
      4.37701856e-05 4.37701856e-05 4.72440151e-05 3.79544545e-05
      -9.18456863e-06 -6.11301730e-05 -1.01883625e-05 2.71050543e-20
      2.71050543e-20 2.71050543e-20 2.71050543e-20 2.71050543e-20
      2.71050543e-20 2.71050543e-20 2.71050543e-20 2.71050543e-20
      2.71050543e-20 2.71050543e-20 2.71050543e-20 2.71050543e-20
      2.71050543e-20 2.71050543e-20 2.71050543e-20 2.71050543e-20
      2.71050543e-20 2.71050543e-20 2.71050543e-20 2.71050543e-20
      2.71050543e-20 2.71050543e-20 2.71050543e-20 2.71050543e-20
      2.71050543e-20 2.71050543e-20 -4.91851188e-06 -1.03389129e-05
      1.09442271e-05 -1.19305223e-05 -5.24443676e-05 8.48608579e-07
      8.48608579e-07 8.48608579e-07 8.48608579e-07 8.48608579e-07
      8.48608579e-07 8.48608579e-07 8.48608579e-07 8.48608579e-07
      8.48608579e-07 8.48608579e-07 8.48608579e-07 8.48608579e-07
      8.48608579e-07 2.63339716e-05 4.02531623e-05 -2.82061937e-05
      -6.69675428e-05 -3.60511294e-05 2.71050543e-20 2.71050543e-20
      2.71050543e-20 2.71050543e-20 2.71050543e-20 2.71050543e-20
      2.71050543e-20 2.71050543e-20 2.71050543e-20 2.71050543e-20
      2.71050543e-20 2.71050543e-20 2.71050543e-20 2.71050543e-20
      2.71050543e-20 2.71050543e-20 2.71050543e-20 2.71050543e-20
      2.71050543e-20 2.71050543e-20 2.71050543e-20 2.71050543e-20
      2.71050543e-20 2.71050543e-20 2.71050543e-20 -8.43173530e-06
      -1.27981693e-05 -1.17943910e-05 6.79990990e-07 -1.17241934e-05
      -9.08466536e-05 -3.99048440e-05 8.48608579e-07 8.48608579e-07
      8.48608579e-07 8.48608579e-07 8.48608579e-07 8.48608579e-07
      8.48608579e-07 8.48608579e-07 8.48608579e-07 8.48608579e-07
      8.48608579e-07 8.48608579e-07 8.48608579e-07 3.04028072e-06
      4.47849488e-05 -5.76349303e-05 -5.93901896e-05 -3.60511294e-05
      -3.60511294e-05 2.71050543e-20 2.71050543e-20 2.71050543e-20
      2.71050543e-20 2.71050543e-20 2.71050543e-20 2.71050543e-20
      2.71050543e-20 2.71050543e-20 2.71050543e-20 2.71050543e-20
      2.71050543e-20 2.71050543e-20 2.71050543e-20 2.71050543e-20
      2.71050543e-20 2.71050543e-20 2.71050543e-20 2.71050543e-20
      2.71050543e-20 2.71050543e-20 2.71050543e-20 2.71050543e-20
      -5.26983422e-06 -1.25974138e-05 -1.27981693e-05 -9.97911120e-05
      -1.73355511e-05 5.68704854e-05 2.78534321e-06 -8.80862644e-05
      -6.77095450e-05 -6.77095450e-05 -6.77095450e-05 -6.77095450e-05
      -6.77095450e-05 -6.77095450e-05 -6.77095450e-05 -6.77095450e-05
      -6.77095450e-05 -6.77095450e-05 -6.77095450e-05 -6.77095450e-05
      -6.79302611e-05 -2.38375360e-05 -1.48410600e-05 4.34598149e-07
      5.21989459e-05 9.73304395e-07 -3.60511294e-05 -3.60511294e-05
      2.71050543e-20 2.71050543e-20 2.71050543e-20 2.71050543e-20
      2.71050543e-20 2.71050543e-20 2.71050543e-20 2.71050543e-20
      2.71050543e-20 2.71050543e-20 2.71050543e-20 2.71050543e-20
      2.71050543e-20 2.71050543e-20 2.71050543e-20 2.71050543e-20
      2.71050543e-20 2.71050543e-20 2.71050543e-20 2.71050543e-20
      2.71050543e-20 2.71050543e-20 -1.09913690e-05 -1.27981693e-05
      -1.27981693e-05 -8.41167057e-05 -1.27981693e-05 -2.20444463e-06
      6.74308030e-05 6.49379353e-06 7.78123358e-05 7.78123358e-05
      7.78123358e-05 7.78123358e-05 7.78123358e-05 7.78123358e-05
      7.78123358e-05 7.78123358e-05 7.78123358e-05 7.78123358e-05
      7.78123358e-05 7.78123358e-05 7.79321344e-05 8.87118440e-05
      -5.25209070e-05 8.48608579e-07 6.66361302e-06 5.16588480e-05
      6.24313861e-06 -7.13185364e-05 2.71050543e-20 2.71050543e-20
      2.71050543e-20 2.71050543e-20 2.71050543e-20 2.71050543e-20
      2.71050543e-20 2.71050543e-20 2.71050543e-20 2.71050543e-20
      2.71050543e-20 2.71050543e-20 2.71050543e-20 2.71050543e-20
      2.71050543e-20 2.71050543e-20 2.71050543e-20 2.71050543e-20
      2.71050543e-20 2.71050543e-20 2.71050543e-20 2.71050543e-20
      -1.09913690e-05 -1.27981693e-05 -1.27981693e-05 -8.41167057e-05
      -1.27981693e-05 -6.37398989e-06 2.71050543e-20 -7.13185364e-05
      2.71050543e-20 2.71050543e-20 2.71050543e-20 2.71050543e-20
      2.71050543e-20 2.71050543e-20 2.71050543e-20 2.71050543e-20
      2.71050543e-20 2.71050543e-20 2.71050543e-20 2.71050543e-20
      4.98982990e-06 7.18643132e-05 -7.04699341e-05 8.48608579e-07
      8.48608579e-07 2.38993853e-05 4.29215797e-05 -7.13185364e-05
      2.71050543e-20 2.71050543e-20 2.71050543e-20 2.71050543e-20
      2.71050543e-20 2.71050543e-20 2.71050543e-20 2.71050543e-20
      2.71050543e-20 2.71050543e-20 2.71050543e-20 2.71050543e-20
      2.71050543e-20 2.71050543e-20 2.71050543e-20 2.71050543e-20
      2.71050543e-20 2.71050543e-20 2.71050543e-20 2.71050543e-20
      2.71050543e-20 2.71050543e-20 -1.09913690e-05 -1.27981693e-05
      -1.27981693e-05 -8.41167057e-05 -1.27981693e-05 -6.37398989e-06
      2.71050543e-20 -7.13185364e-05 2.71050543e-20 2.71050543e-20
      2.71050543e-20 2.71050543e-20 2.71050543e-20 2.71050543e-20
      2.71050543e-20 2.71050543e-20 2.71050543e-20 2.71050543e-20
      2.71050543e-20 2.71050543e-20 4.98982990e-06 7.18643132e-05
      -7.04699341e-05 8.48608579e-07 8.48608579e-07 2.38993853e-05
      4.29215797e-05 -7.13185364e-05 2.71050543e-20 2.71050543e-20
      2.71050543e-20 2.71050543e-20 2.71050543e-20 2.71050543e-20
      2.71050543e-20 2.71050543e-20 2.71050543e-20 2.71050543e-20
      2.71050543e-20 2.71050543e-20 2.71050543e-20 2.71050543e-20
      2.71050543e-20 2.71050543e-20 2.71050543e-20 2.71050543e-20
      2.71050543e-20 2.71050543e-20 2.71050543e-20 2.71050543e-20
      -1.09913690e-05 -1.27981693e-05 -5.90376621e-05 -3.86609354e-05
      -1.27981693e-05 -6.37398989e-06 2.71050543e-20 -7.13185364e-05
      2.71050543e-20 2.71050543e-20 2.71050543e-20 2.71050543e-20
      2.71050543e-20 2.71050543e-20 2.71050543e-20 2.71050543e-20
      2.71050543e-20 2.71050543e-20 2.71050543e-20 2.71050543e-20
      3.30839539e-05 4.37701856e-05 -7.04699341e-05 8.48608579e-07
      8.48608579e-07 2.38993853e-05 2.88146148e-05 -5.72115750e-05
      2.71050543e-20 2.71050543e-20 2.71050543e-20 2.71050543e-20
      2.71050543e-20 2.71050543e-20 2.71050543e-20 2.71050543e-20
      2.71050543e-20 2.71050543e-20 2.71050543e-20 2.71050543e-20
      2.71050543e-20 2.71050543e-20 2.71050543e-20 2.71050543e-20
      2.71050543e-20 2.71050543e-20 2.71050543e-20 2.71050543e-20
      2.71050543e-20 2.71050543e-20 -1.09913690e-05 -1.27981693e-05
      -8.41167057e-05 -1.27981693e-05 -1.27981693e-05 -6.37398989e-06
      2.71050543e-20 -7.13185364e-05 2.71050543e-20 2.71050543e-20
      2.71050543e-20 2.71050543e-20 2.71050543e-20 2.71050543e-20
      2.71050543e-20 2.71050543e-20 2.71050543e-20 2.71050543e-20
      2.71050543e-20 2.71050543e-20 3.30839539e-05 4.37701856e-05
      -7.04699341e-05 8.48608579e-07 8.48608579e-07 6.36993936e-05
      -1.09853945e-05 -5.72115750e-05 2.71050543e-20 2.71050543e-20
      2.71050543e-20 2.71050543e-20 2.71050543e-20 2.71050543e-20
      2.71050543e-20 2.71050543e-20 2.71050543e-20 2.71050543e-20
      2.71050543e-20 2.71050543e-20 2.71050543e-20 2.71050543e-20
      2.71050543e-20 2.71050543e-20 2.71050543e-20 2.71050543e-20
      2.71050543e-20 2.71050543e-20 2.71050543e-20 2.71050543e-20
      -1.09913690e-05 -1.27981693e-05 -8.41167057e-05 -1.27981693e-05
      -1.27981693e-05 -6.37398989e-06 2.71050543e-20 -7.13185364e-05
      2.71050543e-20 2.71050543e-20 2.71050543e-20 2.71050543e-20
      2.71050543e-20 2.71050543e-20 2.71050543e-20 2.71050543e-20
      2.71050543e-20 2.71050543e-20 2.71050543e-20 2.71050543e-20
      3.30839539e-05 4.37701856e-05 -7.04699341e-05 8.48608579e-07
      8.48608579e-07 6.68209614e-05 -1.41069640e-05 -5.72115750e-05
      2.71050543e-20 2.71050543e-20 2.71050543e-20 2.71050543e-20
      2.71050543e-20 2.71050543e-20 2.71050543e-20 2.71050543e-20
      2.71050543e-20 2.71050543e-20 2.71050543e-20 2.71050543e-20
      2.71050543e-20 2.71050543e-20 2.71050543e-20 2.71050543e-20
      2.71050543e-20 2.71050543e-20 2.71050543e-20 2.71050543e-20
      2.71050543e-20 2.71050543e-20 -1.09913690e-05 -1.27981693e-05
      -8.41167057e-05 -1.27981693e-05 -1.27981693e-05 -6.37398989e-06
      2.71050543e-20 -7.13185364e-05 2.71050543e-20 2.71050543e-20
      2.71050543e-20 2.71050543e-20 2.71050543e-20 2.71050543e-20
      2.71050543e-20 2.71050543e-20 2.71050543e-20 2.71050543e-20
      2.71050543e-20 2.71050543e-20 3.11265867e-05 4.37701856e-05
      -7.04699341e-05 8.48608579e-07 8.48608579e-07 6.68209614e-05
      -1.41069640e-05 -5.72115750e-05 2.71050543e-20 2.71050543e-20
      2.71050543e-20 2.71050543e-20 2.71050543e-20 2.71050543e-20
      2.71050543e-20 2.71050543e-20 2.71050543e-20 2.71050543e-20
      2.71050543e-20 2.71050543e-20 2.71050543e-20 2.71050543e-20
      2.71050543e-20 2.71050543e-20 2.71050543e-20 2.71050543e-20
      2.71050543e-20 2.71050543e-20 2.71050543e-20 2.71050543e-20
      -1.09913690e-05 -1.27981693e-05 -8.41167057e-05 -1.27981693e-05
      -1.27981693e-05 -6.37398989e-06 2.71050543e-20 -7.13185364e-05
      2.71050543e-20 2.71050543e-20 2.71050543e-20 2.71050543e-20
      2.71050543e-20 2.71050543e-20 2.71050543e-20 2.71050543e-20
      2.71050543e-20 2.71050543e-20 2.71050543e-20 2.71050543e-20
      2.85167644e-05 4.37701856e-05 -7.04699341e-05 8.48608579e-07
      8.48608579e-07 6.84771949e-05 -1.41069640e-05 -5.72115750e-05
      2.71050543e-20 2.71050543e-20 2.71050543e-20 2.71050543e-20
      2.71050543e-20 2.71050543e-20 2.71050543e-20 2.71050543e-20
      2.71050543e-20 2.71050543e-20 2.71050543e-20 2.71050543e-20
      2.71050543e-20 2.71050543e-20 2.71050543e-20 2.71050543e-20
      2.71050543e-20 2.71050543e-20 2.71050543e-20 2.71050543e-20
      2.71050543e-20 -2.76038941e-06 -1.27981693e-05 -1.27981693e-05
      -8.41167057e-05 -1.27981693e-05 -1.19951465e-05 -4.56718954e-06
      2.71050543e-20 -7.13185364e-05 2.71050543e-20 2.71050543e-20
      2.71050543e-20 2.71050543e-20 2.71050543e-20 2.71050543e-20
      2.71050543e-20 2.71050543e-20 2.71050543e-20 2.71050543e-20
      2.71050543e-20 2.71050543e-20 2.85167644e-05 4.37701856e-05
      -7.04699341e-05 8.48608579e-07 8.48608579e-07 7.14383423e-05
      -1.41069640e-05 -5.72115750e-05 2.71050543e-20 2.71050543e-20
      2.71050543e-20 2.71050543e-20 2.71050543e-20 2.71050543e-20
      2.71050543e-20 2.71050543e-20 2.71050543e-20 2.71050543e-20
      2.71050543e-20 2.71050543e-20 2.71050543e-20 2.71050543e-20
      2.71050543e-20 2.71050543e-20 2.71050543e-20 2.71050543e-20
      2.71050543e-20 2.71050543e-20 2.71050543e-20 -2.76038941e-06
      -1.27981693e-05 -1.27981693e-05 -8.41167057e-05 -1.27981693e-05
      -1.00377792e-05 2.71050543e-20 2.71050543e-20 -7.13185364e-05
      2.71050543e-20 2.71050543e-20 2.71050543e-20 2.71050543e-20
      2.71050543e-20 2.71050543e-20 2.71050543e-20 2.71050543e-20
      2.71050543e-20 2.71050543e-20 2.71050543e-20 2.71050543e-20
      2.85167644e-05 4.37701856e-05 -7.04699341e-05 8.48608579e-07
      8.48608579e-07 7.14383423e-05 -1.41069640e-05 -5.72115750e-05
      2.71050543e-20 2.71050543e-20 2.71050543e-20 2.71050543e-20
      2.71050543e-20 2.71050543e-20 2.71050543e-20 2.71050543e-20
      2.71050543e-20 2.71050543e-20 2.71050543e-20 2.71050543e-20
      2.71050543e-20 2.71050543e-20 2.71050543e-20 2.71050543e-20
      2.71050543e-20 2.71050543e-20 2.71050543e-20 2.71050543e-20
      2.71050543e-20 -2.76038941e-06 -1.27981693e-05 -1.27981693e-05
      -8.41167057e-05 -1.27981693e-05 -1.00377792e-05 2.71050543e-20
      2.71050543e-20 -7.13185364e-05 2.71050543e-20 2.71050543e-20
      2.71050543e-20 2.71050543e-20 2.71050543e-20 2.71050543e-20
      2.71050543e-20 2.71050543e-20 2.71050543e-20 2.71050543e-20
      2.71050543e-20 2.71050543e-20 3.27445887e-05 4.37701856e-05
      -7.04699341e-05 8.48608579e-07 8.48608579e-07 7.14383423e-05
      -1.41069640e-05 -5.72115750e-05 2.71050543e-20 2.71050543e-20
      2.71050543e-20 2.71050543e-20 2.71050543e-20 2.71050543e-20
      2.71050543e-20 2.71050543e-20 2.71050543e-20 2.71050543e-20
      2.71050543e-20 2.71050543e-20 2.71050543e-20 2.71050543e-20
      2.71050543e-20 2.71050543e-20 2.71050543e-20 2.71050543e-20
      2.71050543e-20 2.71050543e-20 2.71050543e-20 -2.76038941e-06
      -1.27981693e-05 -1.27981693e-05 -8.41167057e-05 -1.27981693e-05
      -1.00377792e-05 2.71050543e-20 2.71050543e-20 -7.13185364e-05
      2.71050543e-20 2.71050543e-20 2.71050543e-20 2.71050543e-20
      2.71050543e-20 2.71050543e-20 2.71050543e-20 2.71050543e-20
      2.71050543e-20 2.71050543e-20 2.71050543e-20 2.71050543e-20
      3.34403085e-05 4.37701856e-05 -7.04699341e-05 8.48608579e-07
      8.48608579e-07 6.76386553e-05 -1.41069640e-05 -5.72115750e-05
      2.71050543e-20 2.71050543e-20 2.71050543e-20 2.71050543e-20
      2.71050543e-20 2.71050543e-20 2.71050543e-20 2.71050543e-20
      2.71050543e-20 2.71050543e-20 2.71050543e-20 2.71050543e-20
      2.71050543e-20 2.71050543e-20 2.71050543e-20 2.71050543e-20
      2.71050543e-20 2.71050543e-20 2.71050543e-20 2.71050543e-20
      2.71050543e-20 -2.76038941e-06 -1.27981693e-05 -1.27981693e-05
      -8.41167057e-05 -1.27981693e-05 -1.00377792e-05 2.71050543e-20
      2.71050543e-20 -7.13185364e-05 2.71050543e-20 2.71050543e-20
      2.71050543e-20 2.71050543e-20 2.71050543e-20 2.71050543e-20
      2.71050543e-20 2.71050543e-20 2.71050543e-20 2.71050543e-20
      2.71050543e-20 2.71050543e-20 3.34403085e-05 3.35818258e-05
      -6.02815671e-05 8.48608579e-07 8.48608579e-07 6.65683183e-05
      -1.41069640e-05 -5.72115750e-05 2.71050543e-20 2.71050543e-20
      2.71050543e-20 2.71050543e-20 2.71050543e-20 2.71050543e-20
      2.71050543e-20 2.71050543e-20 2.71050543e-20 2.71050543e-20
      2.71050543e-20 2.71050543e-20 2.71050543e-20 2.71050543e-20
      2.71050543e-20 2.71050543e-20 2.71050543e-20 2.71050543e-20
      2.71050543e-20 2.71050543e-20 2.71050543e-20 -2.76038941e-06
      -1.27981693e-05 -1.27981693e-05 -8.41167057e-05 -1.27981693e-05
      -1.00377792e-05 2.71050543e-20 2.71050543e-20 -7.13185364e-05
      2.71050543e-20 2.71050543e-20 2.71050543e-20 2.71050543e-20
      2.71050543e-20 2.71050543e-20 2.71050543e-20 2.71050543e-20
      2.71050543e-20 2.71050543e-20 2.71050543e-20 2.71050543e-20
      6.15344325e-05 6.26809242e-06 -6.02815671e-05 8.48608579e-07
      8.48608579e-07 6.65683183e-05 -5.09418132e-05 -2.03767249e-05
      2.71050543e-20 2.71050543e-20 2.71050543e-20 2.71050543e-20
      2.71050543e-20 2.71050543e-20 2.71050543e-20 2.71050543e-20
      2.71050543e-20 2.71050543e-20 2.71050543e-20 2.71050543e-20
      2.71050543e-20 2.71050543e-20 2.71050543e-20 2.71050543e-20
      2.71050543e-20 2.71050543e-20 2.71050543e-20 2.71050543e-20
      2.71050543e-20 -1.15434466e-06 -1.07906135e-05 -1.27981693e-05
      -1.82842105e-05 -7.94143853e-05 -6.47436809e-06 2.71050543e-20
      -4.62394928e-05 -2.58627679e-05 2.71050543e-20 2.71050543e-20
      2.71050543e-20 2.71050543e-20 2.71050543e-20 2.71050543e-20
      2.71050543e-20 2.71050543e-20 2.71050543e-20 2.71050543e-20
      2.71050543e-20 2.71050543e-20 6.88879882e-05 1.08155837e-05
      -5.55792467e-05 -1.48257959e-05 1.45087540e-06 4.83690164e-05
      -6.50487782e-05 2.71050543e-20 2.71050543e-20 2.71050543e-20
      2.71050543e-20 2.71050543e-20 2.71050543e-20 2.71050543e-20
      2.71050543e-20 2.71050543e-20 2.71050543e-20 2.71050543e-20
      2.71050543e-20 2.71050543e-20 2.71050543e-20 2.71050543e-20
      2.71050543e-20 2.71050543e-20 2.71050543e-20 2.71050543e-20
      2.71050543e-20 2.71050543e-20 2.71050543e-20 2.71050543e-20
      -1.55585587e-06 -1.07906135e-05 -1.27981693e-05 -3.72903996e-05
      -4.63175093e-05 -3.56072087e-05 5.68731084e-05 8.27358745e-05
      8.27358745e-05 8.27358745e-05 8.27358745e-05 8.27358745e-05
      8.27358745e-05 8.27358745e-05 8.27358745e-05 8.27358745e-05
      8.27358745e-05 8.27358745e-05 8.27358745e-05 8.27358745e-05
      8.52951562e-05 6.90967281e-05 8.48608579e-07 -5.56125269e-05
      -7.02416116e-07 -3.84736177e-06 -6.26976180e-06 2.71050543e-20
      2.71050543e-20 2.71050543e-20 2.71050543e-20 2.71050543e-20
      2.71050543e-20 2.71050543e-20 2.71050543e-20 2.71050543e-20
      2.71050543e-20 2.71050543e-20 2.71050543e-20 2.71050543e-20
      2.71050543e-20 2.71050543e-20 2.71050543e-20 2.71050543e-20
      2.71050543e-20 2.71050543e-20 2.71050543e-20 2.71050543e-20
      2.71050543e-20 2.71050543e-20 2.71050543e-20 -3.46303409e-06
      -6.97625683e-06 2.67583886e-07 2.01136186e-06 5.65350783e-05
      1.36467779e-05 1.36467779e-05 1.36467779e-05 1.36467779e-05
      1.36467779e-05 1.36467779e-05 1.36467779e-05 1.36467779e-05
      1.36467779e-05 1.36467779e-05 1.36467779e-05 1.36467779e-05
      1.36467779e-05 1.36467779e-05 1.94617824e-05 8.69738942e-05
      5.75379563e-05 5.09651072e-05 5.33295906e-06 2.71050543e-20
      2.71050543e-20 2.71050543e-20 2.71050543e-20 2.71050543e-20
      2.71050543e-20 2.71050543e-20 2.71050543e-20 2.71050543e-20
      2.71050543e-20 2.71050543e-20 2.71050543e-20 2.71050543e-20
      2.71050543e-20 2.71050543e-20 2.71050543e-20 2.71050543e-20
      2.71050543e-20 2.71050543e-20 2.71050543e-20 2.71050543e-20
      2.71050543e-20 2.71050543e-20 2.71050543e-20 2.71050543e-20
      2.71050543e-20 2.71050543e-20 2.71050543e-20 2.59094613e-05
      8.90942260e-07 -4.51322376e-05 1.36467779e-05 1.36467779e-05
      1.36467779e-05 1.36467779e-05 1.36467779e-05 1.36467779e-05
      1.36467779e-05 1.36467779e-05 1.36467779e-05 1.36467779e-05
      1.36467779e-05 1.36467779e-05 1.36467779e-05 1.36467779e-05
      1.36467779e-05 1.72811560e-05 9.01868116e-05 2.02902011e-05
      -6.66162159e-05 -3.60511294e-05 2.71050543e-20 2.71050543e-20
      2.71050543e-20 2.71050543e-20 2.71050543e-20 2.71050543e-20
      2.71050543e-20 2.71050543e-20 2.71050543e-20 2.71050543e-20
      2.71050543e-20 2.71050543e-20 2.71050543e-20 2.71050543e-20
      2.71050543e-20 2.71050543e-20 2.71050543e-20 2.71050543e-20
      2.71050543e-20 2.71050543e-20 2.71050543e-20 2.71050543e-20
      2.71050543e-20 2.71050543e-20 2.71050543e-20 -4.90187267e-06
      1.82461172e-05 1.21924249e-05 9.11004245e-05 1.12623384e-05
      -4.74833978e-05 1.36467779e-05 1.36467779e-05 1.36467779e-05
      1.36467779e-05 1.36467779e-05 1.36467779e-05 1.36467779e-05
      1.36467779e-05 1.36467779e-05 1.36467779e-05 1.36467779e-05
      1.36467779e-05 1.36467779e-05 1.36467779e-05 3.36365520e-05
      1.71343090e-05 -7.98506517e-05 -5.73698617e-06 -5.87790164e-05
      -1.25395236e-05 2.71050543e-20 2.71050543e-20 2.71050543e-20
      2.71050543e-20 2.71050543e-20 2.71050543e-20 2.71050543e-20
      2.71050543e-20 2.71050543e-20 2.71050543e-20 2.71050543e-20
      2.71050543e-20 2.71050543e-20 2.71050543e-20 2.71050543e-20
      2.71050543e-20 2.71050543e-20 2.71050543e-20 2.71050543e-20
      2.71050543e-20 2.71050543e-20 2.71050543e-20 2.71050543e-20
      -4.84170005e-06 1.66300888e-05 -1.50421074e-05 -2.73025466e-06
      5.59765103e-05 9.26845096e-05 1.28231231e-05 -4.74833978e-05
      1.36467779e-05 1.36467779e-05 1.36467779e-05 1.36467779e-05
      1.36467779e-05 1.36467779e-05 1.36467779e-05 1.36467779e-05
      1.36467779e-05 1.36467779e-05 1.36467779e-05 1.36467779e-05
      3.42352214e-05 3.03060515e-05 -7.62795098e-05 -1.27981693e-05
      -8.38154574e-06 -2.75267189e-06 -6.89673761e-05 2.71050543e-20
      2.71050543e-20 2.71050543e-20 2.71050543e-20 2.71050543e-20
      2.71050543e-20 2.71050543e-20 2.71050543e-20 2.71050543e-20
      2.71050543e-20 2.71050543e-20 2.71050543e-20 2.71050543e-20
      2.71050543e-20 2.71050543e-20 2.71050543e-20 2.71050543e-20
      2.71050543e-20 2.71050543e-20 2.71050543e-20 2.71050543e-20
      2.71050543e-20 -2.35887819e-06 -6.44631200e-06 7.18643132e-05
      -7.04699341e-05 8.48608579e-07 4.26145380e-06 6.02690852e-05
      7.83751020e-05 8.67724884e-06 7.29423045e-05 7.29423045e-05
      7.29423045e-05 7.29423045e-05 7.29423045e-05 7.29423045e-05
      7.29423045e-05 7.29423045e-05 7.29423045e-05 7.29423045e-05
      7.29423045e-05 7.29423045e-05 4.07497464e-05 -2.69051325e-05
      -7.00097444e-05 -1.27981693e-05 -1.27981693e-05 -4.11548945e-06
      -7.13185364e-05 2.71050543e-20 2.71050543e-20 2.71050543e-20
      2.71050543e-20 2.71050543e-20 2.71050543e-20 2.71050543e-20
      2.71050543e-20 2.71050543e-20 2.71050543e-20 2.71050543e-20
      2.71050543e-20 2.71050543e-20 2.71050543e-20 2.71050543e-20
      2.71050543e-20 2.71050543e-20 2.71050543e-20 2.71050543e-20
      2.71050543e-20 2.71050543e-20 2.71050543e-20 -2.76038941e-06
      1.66298396e-05 4.92329345e-05 -7.04699341e-05 8.48608579e-07
      3.60899799e-06 5.36201696e-05 1.00851985e-05 -5.72115750e-05
      2.71050543e-20 2.71050543e-20 2.71050543e-20 2.71050543e-20
      2.71050543e-20 2.71050543e-20 2.71050543e-20 2.71050543e-20
      2.71050543e-20 2.71050543e-20 2.71050543e-20 2.71050543e-20
      -6.37398989e-06 -2.69051325e-05 -7.00097444e-05 -1.27981693e-05
      -1.27981693e-05 -6.37398989e-06 -7.13185364e-05 2.71050543e-20
      2.71050543e-20 2.71050543e-20 2.71050543e-20 2.71050543e-20
      2.71050543e-20 2.71050543e-20 2.71050543e-20 2.71050543e-20
      2.71050543e-20 2.71050543e-20 2.71050543e-20 2.71050543e-20
      2.71050543e-20 2.71050543e-20 2.71050543e-20 2.71050543e-20
      2.71050543e-20 2.71050543e-20 2.71050543e-20 2.71050543e-20
      2.71050543e-20 -2.76038941e-06 2.20925849e-05 4.37701856e-05
      -7.04699341e-05 8.48608579e-07 3.60899799e-06 7.78123358e-05
      -1.41069640e-05 -5.72115750e-05 2.71050543e-20 2.71050543e-20
      2.71050543e-20 2.71050543e-20 2.71050543e-20 2.71050543e-20
      2.71050543e-20 2.71050543e-20 2.71050543e-20 2.71050543e-20
      2.71050543e-20 2.71050543e-20 -6.37398989e-06 -2.69051325e-05
      -7.00097444e-05 -1.27981693e-05 -1.27981693e-05 -6.37398989e-06
      -7.13185364e-05 2.71050543e-20 2.71050543e-20 2.71050543e-20
      2.71050543e-20 2.71050543e-20 2.71050543e-20 2.71050543e-20
      2.71050543e-20 2.71050543e-20 2.71050543e-20 2.71050543e-20
      2.71050543e-20 2.71050543e-20 2.71050543e-20 2.71050543e-20
      2.71050543e-20 2.71050543e-20 2.71050543e-20 2.71050543e-20
      2.71050543e-20 2.71050543e-20 2.71050543e-20 -2.76038941e-06
      2.20925849e-05 4.37701856e-05 -7.04699341e-05 8.48608579e-07
      3.60899799e-06 7.78123358e-05 -1.41069640e-05 -5.72115750e-05
      2.71050543e-20 2.71050543e-20 2.71050543e-20 2.71050543e-20
      2.71050543e-20 2.71050543e-20 2.71050543e-20 2.71050543e-20
      2.71050543e-20 2.71050543e-20 2.71050543e-20 2.71050543e-20
      -6.37398989e-06 -2.69051325e-05 -7.00097444e-05 -1.27981693e-05
      -1.27981693e-05 -6.37398989e-06 -7.13185364e-05 2.71050543e-20
      2.71050543e-20 2.71050543e-20 2.71050543e-20 2.71050543e-20
      2.71050543e-20 2.71050543e-20 2.71050543e-20 2.71050543e-20
      2.71050543e-20 2.71050543e-20 2.71050543e-20 2.71050543e-20
      2.71050543e-20 2.71050543e-20 2.71050543e-20 2.71050543e-20
      2.71050543e-20 2.71050543e-20 2.71050543e-20 2.71050543e-20
      2.71050543e-20 -2.76038941e-06 2.20925849e-05 4.37701856e-05
      -7.04699341e-05 8.48608579e-07 3.60899799e-06 7.78123358e-05
      -1.41069640e-05 -5.72115750e-05 2.71050543e-20 2.71050543e-20
      2.71050543e-20 2.71050543e-20 2.71050543e-20 2.71050543e-20
      2.71050543e-20 2.71050543e-20 2.71050543e-20 2.71050543e-20
      2.71050543e-20 2.71050543e-20 -7.37776782e-06 -2.69051325e-05
      -7.00097444e-05 -1.27981693e-05 -1.27981693e-05 -6.37398989e-06
      -7.13185364e-05 2.71050543e-20 2.71050543e-20 2.71050543e-20
      2.71050543e-20 2.71050543e-20 2.71050543e-20 2.71050543e-20
      2.71050543e-20 2.71050543e-20 2.71050543e-20 2.71050543e-20
      2.71050543e-20 2.71050543e-20 2.71050543e-20 2.71050543e-20
      2.71050543e-20 2.71050543e-20 2.71050543e-20 2.71050543e-20
      2.71050543e-20 2.71050543e-20 2.71050543e-20 -5.01888962e-06
      2.20925849e-05 4.37701856e-05 -7.04699341e-05 8.48608579e-07
      3.60899799e-06 7.78123358e-05 -1.41069640e-05 -5.72115750e-05
      2.71050543e-20 2.71050543e-20 2.71050543e-20 2.71050543e-20
      2.71050543e-20 2.71050543e-20 2.71050543e-20 2.71050543e-20
      2.71050543e-20 2.71050543e-20 2.71050543e-20 2.71050543e-20
      -1.09913690e-05 -2.69051325e-05 -7.00097444e-05 -1.27981693e-05
      -1.27981693e-05 -4.11548945e-06 -7.13185364e-05 2.71050543e-20
      2.71050543e-20 2.71050543e-20 2.71050543e-20 2.71050543e-20
      2.71050543e-20 2.71050543e-20 2.71050543e-20 2.71050543e-20
      2.71050543e-20 2.71050543e-20 2.71050543e-20 2.71050543e-20
      2.71050543e-20 2.71050543e-20 2.71050543e-20 2.71050543e-20
      2.71050543e-20 2.71050543e-20 2.71050543e-20 2.71050543e-20
      2.71050543e-20 -7.32757917e-06 2.20925849e-05 4.37701856e-05
      -7.04699341e-05 8.48608579e-07 7.17240982e-06 7.78123358e-05
      -1.41069640e-05 -5.72115750e-05 2.71050543e-20 2.71050543e-20
      2.71050543e-20 2.71050543e-20 2.71050543e-20 2.71050543e-20
      2.71050543e-20 2.71050543e-20 2.71050543e-20 2.71050543e-20
      2.71050543e-20 2.71050543e-20 -1.09913690e-05 -2.69051325e-05
      -7.00097444e-05 -1.27981693e-05 -1.27981693e-05 -1.80680036e-06
      -7.13185364e-05 2.71050543e-20 2.71050543e-20 2.71050543e-20
      2.71050543e-20 2.71050543e-20 2.71050543e-20 2.71050543e-20
      2.71050543e-20 2.71050543e-20 2.71050543e-20 2.71050543e-20
      2.71050543e-20 2.71050543e-20 2.71050543e-20 2.71050543e-20
      2.71050543e-20 2.71050543e-20 2.71050543e-20 2.71050543e-20
      2.71050543e-20 2.71050543e-20 2.71050543e-20 -7.32757917e-06
      2.20925849e-05 4.37701856e-05 -7.04699341e-05 8.48608579e-07
      8.17618729e-06 7.78123358e-05 -1.41069640e-05 -5.72115750e-05
      2.71050543e-20 2.71050543e-20 2.71050543e-20 2.71050543e-20
      2.71050543e-20 2.71050543e-20 2.71050543e-20 2.71050543e-20
      2.71050543e-20 2.71050543e-20 2.71050543e-20 2.71050543e-20
      -1.09913690e-05 -2.69051325e-05 -7.00097444e-05 -1.27981693e-05
      -1.27981693e-05 -1.80680036e-06 -7.13185364e-05 2.71050543e-20
      2.71050543e-20 2.71050543e-20 2.71050543e-20 2.71050543e-20
      2.71050543e-20 2.71050543e-20 2.71050543e-20 2.71050543e-20
      2.71050543e-20 2.71050543e-20 2.71050543e-20 2.71050543e-20
      2.71050543e-20 2.71050543e-20 2.71050543e-20 2.71050543e-20
      2.71050543e-20 2.71050543e-20 2.71050543e-20 2.71050543e-20
      2.71050543e-20 -7.32757917e-06 2.70161290e-05 4.37701856e-05
      -7.04699341e-05 8.48608579e-07 8.17618729e-06 7.64208962e-05
      -1.41069640e-05 -5.72115750e-05 2.71050543e-20 2.71050543e-20
      2.71050543e-20 2.71050543e-20 2.71050543e-20 2.71050543e-20
      2.71050543e-20 2.71050543e-20 2.71050543e-20 2.71050543e-20
      2.71050543e-20 2.71050543e-20 -1.09913690e-05 -2.69051325e-05
      -7.00097444e-05 -1.27981693e-05 -1.27981693e-05 -1.80680036e-06
      -7.13185364e-05 2.71050543e-20 2.71050543e-20 2.71050543e-20
      2.71050543e-20 2.71050543e-20 2.71050543e-20 2.71050543e-20
      2.71050543e-20 2.71050543e-20 2.71050543e-20 2.71050543e-20
      2.71050543e-20 2.71050543e-20 2.71050543e-20 2.71050543e-20
      2.71050543e-20 2.71050543e-20 2.71050543e-20 2.71050543e-20
      2.71050543e-20 2.71050543e-20 2.71050543e-20 -7.32757917e-06
      2.70161290e-05 4.37701856e-05 -7.04699341e-05 8.48608579e-07
      8.17618729e-06 7.29423045e-05 -1.41069640e-05 -5.72115750e-05
      2.71050543e-20 2.71050543e-20 2.71050543e-20 2.71050543e-20
      2.71050543e-20 2.71050543e-20 2.71050543e-20 2.71050543e-20
      2.71050543e-20 2.71050543e-20 2.71050543e-20 2.71050543e-20
      -1.09913690e-05 -5.98213810e-05 -3.70934940e-05 -1.27981693e-05
      -1.27981693e-05 -1.80680036e-06 -7.13185364e-05 2.71050543e-20
      2.71050543e-20 2.71050543e-20 2.71050543e-20 2.71050543e-20
      2.71050543e-20 2.71050543e-20 2.71050543e-20 2.71050543e-20
      2.71050543e-20 2.71050543e-20 2.71050543e-20 2.71050543e-20
      2.71050543e-20 2.71050543e-20 2.71050543e-20 2.71050543e-20
      2.71050543e-20 2.71050543e-20 2.71050543e-20 2.71050543e-20
      2.71050543e-20 -7.32757917e-06 2.70161290e-05 3.12306620e-05
      -5.79304069e-05 8.48608579e-07 8.17618729e-06 7.29423045e-05
      -2.27278870e-05 -4.85906530e-05 2.71050543e-20 2.71050543e-20
      2.71050543e-20 2.71050543e-20 2.71050543e-20 2.71050543e-20
      2.71050543e-20 2.71050543e-20 2.71050543e-20 2.71050543e-20
      2.71050543e-20 2.71050543e-20 -1.09913690e-05 -8.41167057e-05
      -1.27981693e-05 -1.27981693e-05 -1.27981693e-05 -1.80680036e-06
      -7.13185364e-05 2.71050543e-20 2.71050543e-20 2.71050543e-20
      2.71050543e-20 2.71050543e-20 2.71050543e-20 2.71050543e-20
      2.71050543e-20 2.71050543e-20 2.71050543e-20 2.71050543e-20
      2.71050543e-20 2.71050543e-20 2.71050543e-20 2.71050543e-20
      2.71050543e-20 2.71050543e-20 2.71050543e-20 2.71050543e-20
      2.71050543e-20 2.71050543e-20 2.71050543e-20 -7.32757917e-06
      6.05729983e-05 -3.89364732e-06 -5.63629656e-05 8.48608579e-07
      8.17618729e-06 7.29423045e-05 -7.13185364e-05 2.71050543e-20
      2.71050543e-20 2.71050543e-20 2.71050543e-20 2.71050543e-20
      2.71050543e-20 2.71050543e-20 2.71050543e-20 2.71050543e-20
      2.71050543e-20 2.71050543e-20 2.71050543e-20 2.71050543e-20
      -1.09913690e-05 -8.41167057e-05 -1.27981693e-05 -1.27981693e-05
      -1.27981693e-05 -1.80680036e-06 -7.13185364e-05 2.71050543e-20
      2.71050543e-20 2.71050543e-20 2.71050543e-20 2.71050543e-20
      2.71050543e-20 2.71050543e-20 2.71050543e-20 2.71050543e-20
      2.71050543e-20 2.71050543e-20 2.71050543e-20 2.71050543e-20
      2.71050543e-20 2.71050543e-20 2.71050543e-20 2.71050543e-20
      2.71050543e-20 2.71050543e-20 2.71050543e-20 2.71050543e-20
      2.71050543e-20 -7.32757917e-06 6.99377051e-05 -1.32583555e-05
      -5.63629656e-05 8.48608579e-07 8.17618729e-06 7.29423045e-05
      -7.13185364e-05 2.71050543e-20 2.71050543e-20 2.71050543e-20
      2.71050543e-20 2.71050543e-20 2.71050543e-20 2.71050543e-20
      2.71050543e-20 2.71050543e-20 2.71050543e-20 2.71050543e-20
      2.71050543e-20 2.71050543e-20 -1.09913690e-05 -8.41167057e-05
      -1.27981693e-05 -1.27981693e-05 -1.27981693e-05 -1.80680036e-06
      -7.13185364e-05 2.71050543e-20 2.71050543e-20 2.71050543e-20
      2.71050543e-20 2.71050543e-20 2.71050543e-20 2.71050543e-20
      2.71050543e-20 2.71050543e-20 2.71050543e-20 2.71050543e-20
      2.71050543e-20 2.71050543e-20 2.71050543e-20 2.71050543e-20
      2.71050543e-20 2.71050543e-20 2.71050543e-20 2.71050543e-20
      2.71050543e-20 2.71050543e-20 2.71050543e-20 -7.32757917e-06
      6.99377051e-05 -9.33975389e-06 -6.02815671e-05 8.48608579e-07
      8.17618729e-06 7.29423045e-05 -7.52371416e-05 -5.72115750e-05
      -5.72115750e-05 -5.72115750e-05 -5.72115750e-05 -5.72115750e-05
      -5.72115750e-05 -5.72115750e-05 -5.72115750e-05 -5.72115750e-05
      -5.72115750e-05 -5.72115750e-05 -5.72115750e-05 -5.72115750e-05
      -6.82029422e-05 -8.01981078e-05 -2.92562927e-05 -1.27981693e-05
      -1.27981693e-05 -1.80680036e-06 -7.13185364e-05 2.71050543e-20
      2.71050543e-20 2.71050543e-20 2.71050543e-20 2.71050543e-20
      2.71050543e-20 2.71050543e-20 2.71050543e-20 2.71050543e-20
      2.71050543e-20 2.71050543e-20 2.71050543e-20 2.71050543e-20
      2.71050543e-20 2.71050543e-20 2.71050543e-20 2.71050543e-20
      2.71050543e-20 2.71050543e-20 2.71050543e-20 2.71050543e-20
      2.71050543e-20 -6.32380124e-06 5.67197931e-05 1.02133163e-05
      -2.97164788e-05 -3.99048440e-05 1.57651284e-05 3.58782054e-05
      -2.15349373e-05 1.13813121e-05 3.17580379e-05 3.17580379e-05
      3.17580379e-05 3.17580379e-05 3.17580379e-05 3.17580379e-05
      3.17580379e-05 3.17580379e-05 3.17580379e-05 3.17580379e-05
      3.17580379e-05 2.17511279e-05 -2.50983321e-05 -7.07934669e-05
      -8.01981078e-05 -2.84725738e-05 -2.16005446e-05 -6.88554137e-05
      -2.03767249e-05 2.71050543e-20 2.71050543e-20 2.71050543e-20
      2.71050543e-20 2.71050543e-20 2.71050543e-20 2.71050543e-20
      2.71050543e-20 2.71050543e-20 2.71050543e-20 2.71050543e-20
      2.71050543e-20 2.71050543e-20 2.71050543e-20 2.71050543e-20
      2.71050543e-20 2.71050543e-20 2.71050543e-20 2.71050543e-20
      2.71050543e-20 2.71050543e-20 2.71050543e-20 -4.01511187e-07
      -6.42031182e-06 5.37587730e-05 8.65253151e-06 -2.18246787e-05
      -1.05901472e-05 9.12848645e-06 4.88676596e-06 3.07495320e-05
      3.07495320e-05 3.07495320e-05 3.07495320e-05 3.07495320e-05
      3.07495320e-05 3.07495320e-05 3.07495320e-05 3.07495320e-05
      3.07495320e-05 3.07495320e-05 3.07495320e-05 4.22959311e-05
      4.56965863e-05 -1.46407847e-05 -7.15771821e-05 -7.89124970e-05
      -6.56278717e-05 -3.91860112e-06 2.71050543e-20 2.71050543e-20
      2.71050543e-20 2.71050543e-20 2.71050543e-20 2.71050543e-20
      2.71050543e-20 2.71050543e-20 2.71050543e-20 2.71050543e-20
      2.71050543e-20 2.71050543e-20 2.71050543e-20 2.71050543e-20
      2.71050543e-20 2.71050543e-20 2.71050543e-20 2.71050543e-20
      2.71050543e-20 2.71050543e-20 2.71050543e-20 2.71050543e-20
      2.71050543e-20 2.71050543e-20 -4.31624539e-06 -9.26177745e-06
      5.82911016e-05 6.28019843e-05 4.89523081e-05 -4.93361076e-05
      8.48608579e-07 8.48608579e-07 8.48608579e-07 8.48608579e-07
      8.48608579e-07 8.48608579e-07 8.48608579e-07 8.48608579e-07
      8.48608579e-07 8.48608579e-07 8.48608579e-07 8.48608579e-07
      8.48608579e-07 8.48608579e-07 3.05967005e-05 4.37894087e-05
      -1.82842105e-05 -7.34920977e-05 2.71050543e-20 2.71050543e-20
      2.71050543e-20 2.71050543e-20 2.71050543e-20 2.71050543e-20
      2.71050543e-20 2.71050543e-20 2.71050543e-20 2.71050543e-20
      2.71050543e-20 2.71050543e-20 2.71050543e-20 2.71050543e-20
      2.71050543e-20 2.71050543e-20 2.71050543e-20 2.71050543e-20
      2.71050543e-20 2.71050543e-20 2.71050543e-20 2.71050543e-20
      2.71050543e-20 2.71050543e-20 2.71050543e-20 2.71050543e-20
      2.71050543e-20 -4.91851188e-06 -1.08408021e-05 6.07335496e-05
      1.02133163e-05 -2.97164788e-05 -3.99048440e-05 8.48608579e-07
      8.48608579e-07 8.48608579e-07 8.48608579e-07 8.48608579e-07
      8.48608579e-07 8.48608579e-07 8.48608579e-07 8.48608579e-07
      8.48608579e-07 8.48608579e-07 8.48608579e-07 8.48608579e-07
      8.48608579e-07 4.47986349e-05 -5.15958527e-05 2.71050543e-20
      2.71050543e-20 2.71050543e-20 2.71050543e-20 2.71050543e-20
      2.71050543e-20 2.71050543e-20 2.71050543e-20 2.71050543e-20
      2.71050543e-20 2.71050543e-20 2.71050543e-20 2.71050543e-20
      2.71050543e-20 2.71050543e-20 2.71050543e-20 2.71050543e-20
      2.71050543e-20 2.71050543e-20 2.71050543e-20 2.71050543e-20
      2.71050543e-20 2.71050543e-20 2.71050543e-20 2.71050543e-20
      2.71050543e-20 2.71050543e-20 2.71050543e-20 2.71050543e-20
      -4.91851188e-06 -1.14067325e-05 6.20267529e-05 8.65253151e-06
      -2.97164788e-05 -7.04699341e-05 -7.04699341e-05 -7.04699341e-05
      -7.04699341e-05 -7.04699341e-05 -7.04699341e-05 -7.04699341e-05
      -7.04699341e-05 -7.04699341e-05 -7.04699341e-05 -7.04699341e-05
      -7.04699341e-05 -7.04699341e-05 -4.60082701e-05 -2.96494181e-05
      2.71050543e-20 2.71050543e-20 2.71050543e-20 2.71050543e-20
      2.71050543e-20 2.71050543e-20 2.71050543e-20 2.71050543e-20
      2.71050543e-20 2.71050543e-20 2.71050543e-20 2.71050543e-20
      2.71050543e-20 2.71050543e-20 2.71050543e-20 2.71050543e-20
      2.71050543e-20 2.71050543e-20 2.71050543e-20 2.71050543e-20
      2.71050543e-20 2.71050543e-20 2.71050543e-20 2.71050543e-20
      2.71050543e-20 2.71050543e-20 2.71050543e-20 2.71050543e-20
      2.71050543e-20 2.71050543e-20 2.71050543e-20 -5.16945647e-06
      -7.87034060e-06 6.04212473e-05 6.89208900e-05 6.89208900e-05
      6.89208900e-05 6.89208900e-05 6.89208900e-05 6.89208900e-05
      6.89208900e-05 6.89208900e-05 6.89208900e-05 6.89208900e-05
      6.89208900e-05 6.89208900e-05 6.89208900e-05 6.66770502e-05
      3.70269736e-05 2.71050543e-20 2.71050543e-20 2.71050543e-20
      2.71050543e-20 2.71050543e-20 2.71050543e-20 2.71050543e-20
      2.71050543e-20 2.71050543e-20 2.71050543e-20 2.71050543e-20
      2.71050543e-20 2.71050543e-20 2.71050543e-20 2.71050543e-20
      2.71050543e-20 2.71050543e-20 2.71050543e-20 2.71050543e-20
      2.71050543e-20 2.71050543e-20 2.71050543e-20 2.71050543e-20
      2.71050543e-20 2.71050543e-20 2.71050543e-20 2.71050543e-20
      2.71050543e-20 2.71050543e-20 2.71050543e-20 2.71050543e-20
      2.71050543e-20 2.71050543e-20 -4.31624539e-06 -6.37398989e-06
      -6.37398989e-06 -6.37398989e-06 -6.37398989e-06 -6.37398989e-06
      -6.37398989e-06 -6.37398989e-06 -6.37398989e-06 -6.37398989e-06
      -6.37398989e-06 -6.37398989e-06 -6.37398989e-06 -6.37398989e-06
      -6.37398989e-06 -2.76038941e-06 2.71050543e-20 2.71050543e-20
      2.71050543e-20 2.71050543e-20 2.71050543e-20 2.71050543e-20
      2.71050543e-20 2.71050543e-20 2.71050543e-20 2.71050543e-20
      2.71050543e-20 2.71050543e-20 2.71050543e-20 2.71050543e-20
      2.71050543e-20 2.71050543e-20 2.71050543e-20 2.71050543e-20
      2.71050543e-20 2.71050543e-20 2.71050543e-20 2.71050543e-20
      2.71050543e-20 2.71050543e-20 2.71050543e-20 2.71050543e-20
      2.71050543e-20 2.71050543e-20 2.71050543e-20 2.71050543e-20
      2.71050543e-20 2.71050543e-20 2.71050543e-20 2.71050543e-20
      2.71050543e-20 2.71050543e-20 2.71050543e-20 2.71050543e-20
      2.71050543e-20 2.71050543e-20 2.71050543e-20 2.71050543e-20
      2.71050543e-20 2.71050543e-20 2.71050543e-20 2.71050543e-20
      2.71050543e-20 2.71050543e-20 2.71050543e-20 2.71050543e-20
      2.71050543e-20 2.71050543e-20 2.71050543e-20 2.71050543e-20
      2.71050543e-20 2.71050543e-20 2.71050543e-20 2.71050543e-20
      2.71050543e-20 2.71050543e-20 2.71050543e-20 2.71050543e-20
      2.71050543e-20 2.71050543e-20 2.71050543e-20 2.71050543e-20
      2.71050543e-20 2.71050543e-20 2.71050543e-20 2.71050543e-20
      2.71050543e-20 2.71050543e-20 2.71050543e-20 2.71050543e-20
      2.71050543e-20 2.71050543e-20 2.71050543e-20 2.71050543e-20
      2.71050543e-20 2.71050543e-20 2.71050543e-20 2.71050543e-20
      2.71050543e-20 2.71050543e-20 2.71050543e-20 2.71050543e-20
      2.71050543e-20 2.71050543e-20 2.71050543e-20 2.71050543e-20
      2.71050543e-20 2.71050543e-20 2.71050543e-20 2.71050543e-20
      2.71050543e-20 2.71050543e-20 2.71050543e-20 2.71050543e-20
      2.71050543e-20 2.71050543e-20 2.71050543e-20 2.71050543e-20
      2.71050543e-20 2.71050543e-20 2.71050543e-20 2.71050543e-20
      2.71050543e-20 2.71050543e-20 2.71050543e-20 2.71050543e-20
      2.71050543e-20 2.71050543e-20 2.71050543e-20 2.71050543e-20
      2.71050543e-20 2.71050543e-20 2.71050543e-20 2.71050543e-20</_>
    <_>
      5.42101086e-20 5.42101086e-20 5.42101086e-20 5.42101086e-20
      5.42101086e-20 5.42101086e-20 5.42101086e-20 5.42101086e-20
      5.42101086e-20 5.42101086e-20 5.42101086e-20 5.42101086e-20
      5.42101086e-20 5.42101086e-20 5.42101086e-20 5.42101086e-20
      5.42101086e-20 5.42101086e-20 5.42101086e-20 5.42101086e-20
      5.42101086e-20 5.42101086e-20 5.42101086e-20 5.42101086e-20
      5.42101086e-20 5.42101086e-20 5.42101086e-20 5.42101086e-20
      5.42101086e-20 5.42101086e-20 5.42101086e-20 5.42101086e-20
      5.42101086e-20 5.42101086e-20 5.42101086e-20 5.42101086e-20
      5.42101086e-20 5.42101086e-20 5.42101086e-20 5.42101086e-20
      5.42101086e-20 5.42101086e-20 5.42101086e-20 5.42101086e-20
      5.42101086e-20 5.42101086e-20 5.42101086e-20 5.42101086e-20
      5.42101086e-20 5.42101086e-20 5.42101086e-20 5.42101086e-20
      5.42101086e-20 5.42101086e-20 5.42101086e-20 5.42101086e-20
      5.42101086e-20 5.42101086e-20 5.42101086e-20 5.42101086e-20
      5.42101086e-20 5.42101086e-20 5.42101086e-20 5.42101086e-20
      5.42101086e-20 5.42101086e-20 5.42101086e-20 -1.91421714e-06
      -6.98689291e-06 -6.98689291e-06 -5.04467716e-05 -5.04467716e-05
      -5.04467716e-05 -5.04467716e-05 -5.04467716e-05 -5.04467716e-05
      -5.04467716e-05 -5.04467716e-05 -5.04467716e-05 -5.04467716e-05
      -5.04467716e-05 -5.04467716e-05 -4.98246518e-05 -4.40341428e-05
      -1.26428731e-05 5.42101086e-20 5.42101086e-20 5.42101086e-20
      5.42101086e-20 5.42101086e-20 5.42101086e-20 5.42101086e-20
      5.42101086e-20 5.42101086e-20 5.42101086e-20 5.42101086e-20
      5.42101086e-20 5.42101086e-20 5.42101086e-20 5.42101086e-20
      5.42101086e-20 5.42101086e-20 5.42101086e-20 5.42101086e-20
      5.42101086e-20 5.42101086e-20 5.42101086e-20 5.42101086e-20
      5.42101086e-20 5.42101086e-20 5.42101086e-20 5.42101086e-20
      5.42101086e-20 5.42101086e-20 5.42101086e-20 5.42101086e-20
      -2.84393445e-06 -4.41742486e-06 4.88684464e-06 -3.63358304e-05
      -5.51882431e-06 -5.51882431e-06 -5.51882431e-06 -5.51882431e-06
      -5.51882431e-06 -5.51882431e-06 -5.51882431e-06 -5.51882431e-06
      -5.51882431e-06 -5.51882431e-06 -5.51882431e-06 -1.12436492e-05
      -1.63607001e-05 -3.71082970e-05 -5.97420258e-05 -1.02723352e-05
      5.42101086e-20 5.42101086e-20 5.42101086e-20 5.42101086e-20
      5.42101086e-20 5.42101086e-20 5.42101086e-20 5.42101086e-20
      5.42101086e-20 5.42101086e-20 5.42101086e-20 5.42101086e-20
      5.42101086e-20 5.42101086e-20 5.42101086e-20 5.42101086e-20
      5.42101086e-20 5.42101086e-20 5.42101086e-20 5.42101086e-20
      5.42101086e-20 5.42101086e-20 5.42101086e-20 5.42101086e-20
      5.42101086e-20 5.42101086e-20 5.42101086e-20 5.42101086e-20
      5.42101086e-20 -2.85726787e-06 2.55769208e-07 1.49997304e-05
      2.78036759e-06 3.21503467e-05 4.47932216e-05 4.47932216e-05
      4.47932216e-05 4.47932216e-05 4.47932216e-05 4.47932216e-05
      4.47932216e-05 4.47932216e-05 4.47932216e-05 4.47932216e-05
      4.47932216e-05 4.20125907e-05 3.60071244e-05 3.40241240e-05
      -8.75754358e-06 -6.16340112e-05 -1.02723352e-05 5.42101086e-20
      5.42101086e-20 5.42101086e-20 5.42101086e-20 5.42101086e-20
      5.42101086e-20 5.42101086e-20 5.42101086e-20 5.42101086e-20
      5.42101086e-20 5.42101086e-20 5.42101086e-20 5.42101086e-20
      5.42101086e-20 5.42101086e-20 5.42101086e-20 5.42101086e-20
      5.42101086e-20 5.42101086e-20 5.42101086e-20 5.42101086e-20
      5.42101086e-20 5.42101086e-20 5.42101086e-20 5.42101086e-20
      5.42101086e-20 5.42101086e-20 -2.89060154e-06 2.62735216e-06
      1.73702701e-05 -1.14228651e-05 -5.20321992e-05 1.70001181e-06
      1.70001181e-06 1.70001181e-06 1.70001181e-06 1.70001181e-06
      1.70001181e-06 1.70001181e-06 1.70001181e-06 1.70001181e-06
      1.70001181e-06 1.70001181e-06 1.70001181e-06 1.70001181e-06
      -9.71573286e-07 1.47432329e-05 3.63690415e-05 -2.80101176e-05
      -6.75002520e-05 -3.63482613e-05 5.42101086e-20 5.42101086e-20
      5.42101086e-20 5.42101086e-20 5.42101086e-20 5.42101086e-20
      5.42101086e-20 5.42101086e-20 5.42101086e-20 5.42101086e-20
      5.42101086e-20 5.42101086e-20 5.42101086e-20 5.42101086e-20
      5.42101086e-20 5.42101086e-20 5.42101086e-20 5.42101086e-20
      5.42101086e-20 5.42101086e-20 5.42101086e-20 5.42101086e-20
      5.42101086e-20 5.42101086e-20 5.42101086e-20 -8.03971216e-06
      -9.96772724e-06 1.56667750e-06 5.87546310e-06 -1.10095289e-05
      -9.07510039e-05 -3.93893279e-05 1.70001181e-06 1.70001181e-06
      1.70001181e-06 1.70001181e-06 1.70001181e-06 1.70001181e-06
      1.70001181e-06 1.70001181e-06 1.70001181e-06 1.70001181e-06
      1.70001181e-06 1.70001181e-06 -9.71573286e-07 -3.53364999e-06
      4.20715187e-05 -6.38781421e-05 -5.94347184e-05 -3.63482613e-05
      -3.63482613e-05 5.42101086e-20 5.42101086e-20 5.42101086e-20
      5.42101086e-20 5.42101086e-20 5.42101086e-20 5.42101086e-20
      5.42101086e-20 5.42101086e-20 5.42101086e-20 5.42101086e-20
      5.42101086e-20 5.42101086e-20 5.42101086e-20 5.42101086e-20
      5.42101086e-20 5.42101086e-20 5.42101086e-20 5.42101086e-20
      5.42101086e-20 5.42101086e-20 5.42101086e-20 5.42101086e-20
      -5.02482044e-06 -1.20117129e-05 -1.22031352e-05 -9.77867094e-05
      -4.96829671e-06 6.34305179e-05 3.46188040e-06 -8.81189553e-05
      -6.75742849e-05 -6.75742849e-05 -6.75742849e-05 -6.75742849e-05
      -6.75742849e-05 -6.75742849e-05 -6.75742849e-05 -6.75742849e-05
      -6.75742849e-05 -6.75742849e-05 -6.75742849e-05 -6.91554233e-05
      -7.20584285e-05 -1.97409827e-05 -1.49077314e-05 -1.14060276e-05
      4.83121112e-05 1.24328278e-06 -3.63482613e-05 -3.63482613e-05
      5.42101086e-20 5.42101086e-20 5.42101086e-20 5.42101086e-20
      5.42101086e-20 5.42101086e-20 5.42101086e-20 5.42101086e-20
      5.42101086e-20 5.42101086e-20 5.42101086e-20 5.42101086e-20
      5.42101086e-20 5.42101086e-20 5.42101086e-20 5.42101086e-20
      5.42101086e-20 5.42101086e-20 5.42101086e-20 5.42101086e-20
      5.42101086e-20 5.42101086e-20 -1.04803394e-05 -1.22031352e-05
      -1.22031352e-05 -8.41094807e-05 -1.00222487e-05 4.76423702e-06
      6.88218279e-05 6.31764124e-06 7.82239877e-05 7.82239877e-05
      7.82239877e-05 7.82239877e-05 7.82239877e-05 7.82239877e-05
      7.82239877e-05 7.82239877e-05 7.82239877e-05 7.82239877e-05
      7.82239877e-05 8.28583652e-05 8.34800230e-05 9.02369648e-05
      -5.21855363e-05 -9.71573286e-07 -5.44433260e-06 4.82831274e-05
      6.26810288e-06 -7.19063464e-05 5.42101086e-20 5.42101086e-20
      5.42101086e-20 5.42101086e-20 5.42101086e-20 5.42101086e-20
      5.42101086e-20 5.42101086e-20 5.42101086e-20 5.42101086e-20
      5.42101086e-20 5.42101086e-20 5.42101086e-20 5.42101086e-20
      5.42101086e-20 5.42101086e-20 5.42101086e-20 5.42101086e-20
      5.42101086e-20 5.42101086e-20 5.42101086e-20 5.42101086e-20
      -1.04803394e-05 -1.22031352e-05 -1.22031352e-05 -8.41094807e-05
      -1.22031352e-05 -6.07763968e-06 5.42101086e-20 -7.19063464e-05
      5.42101086e-20 5.42101086e-20 5.42101086e-20 5.42101086e-20
      5.42101086e-20 5.42101086e-20 5.42101086e-20 5.42101086e-20
      5.42101086e-20 5.42101086e-20 5.42101086e-20 1.29217478e-05
      1.21803514e-05 7.29996827e-05 -7.02063335e-05 1.70001181e-06
      -1.12217367e-05 1.77261245e-05 4.30932087e-05 -7.19063464e-05
      5.42101086e-20 5.42101086e-20 5.42101086e-20 5.42101086e-20
      5.42101086e-20 5.42101086e-20 5.42101086e-20 5.42101086e-20
      5.42101086e-20 5.42101086e-20 5.42101086e-20 5.42101086e-20
      5.42101086e-20 5.42101086e-20 5.42101086e-20 5.42101086e-20
      5.42101086e-20 5.42101086e-20 5.42101086e-20 5.42101086e-20
      5.42101086e-20 5.42101086e-20 -1.04803394e-05 -1.22031352e-05
      -1.22031352e-05 -8.41094807e-05 -1.22031352e-05 -6.07763968e-06
      5.42101086e-20 -7.19063464e-05 5.42101086e-20 5.42101086e-20
      5.42101086e-20 5.42101086e-20 5.42101086e-20 5.42101086e-20
      5.42101086e-20 5.42101086e-20 5.42101086e-20 5.42101086e-20
      5.42101086e-20 1.29217478e-05 1.21803514e-05 7.29996827e-05
      -7.02063335e-05 1.70001181e-06 -1.12217367e-05 1.77261245e-05
      4.30932087e-05 -7.19063464e-05 5.42101086e-20 5.42101086e-20
      5.42101086e-20 5.42101086e-20 5.42101086e-20 5.42101086e-20
      5.42101086e-20 5.42101086e-20 5.42101086e-20 5.42101086e-20
      5.42101086e-20 5.42101086e-20 5.42101086e-20 5.42101086e-20
      5.42101086e-20 5.42101086e-20 5.42101086e-20 5.42101086e-20
      5.42101086e-20 5.42101086e-20 5.42101086e-20 5.42101086e-20
      -1.04803394e-05 -1.22031352e-05 -5.88237308e-05 -3.82790604e-05
      -1.22031352e-05 -6.07763968e-06 5.42101086e-20 -7.19063464e-05
      5.42101086e-20 5.42101086e-20 5.42101086e-20 5.42101086e-20
      5.42101086e-20 5.42101086e-20 5.42101086e-20 5.42101086e-20
      5.42101086e-20 5.42101086e-20 5.42101086e-20 1.29217478e-05
      4.03868144e-05 4.47932216e-05 -7.02063335e-05 1.70001181e-06
      -1.12217367e-05 1.77261245e-05 2.88699757e-05 -5.76831117e-05
      5.42101086e-20 5.42101086e-20 5.42101086e-20 5.42101086e-20
      5.42101086e-20 5.42101086e-20 5.42101086e-20 5.42101086e-20
      5.42101086e-20 5.42101086e-20 5.42101086e-20 5.42101086e-20
      5.42101086e-20 5.42101086e-20 5.42101086e-20 5.42101086e-20
      5.42101086e-20 5.42101086e-20 5.42101086e-20 5.42101086e-20
      5.42101086e-20 5.42101086e-20 -1.04803394e-05 -1.22031352e-05
      -8.41094807e-05 -1.22031352e-05 -1.22031352e-05 -6.07763968e-06
      5.42101086e-20 -7.19063464e-05 5.42101086e-20 5.42101086e-20
      5.42101086e-20 5.42101086e-20 5.42101086e-20 5.42101086e-20
      5.42101086e-20 5.42101086e-20 5.42101086e-20 5.42101086e-20
      5.42101086e-20 1.29217478e-05 4.03868144e-05 4.47932216e-05
      -7.02063335e-05 1.70001181e-06 -1.12217367e-05 5.76852799e-05
      -1.10891815e-05 -5.76831117e-05 5.42101086e-20 5.42101086e-20
      5.42101086e-20 5.42101086e-20 5.42101086e-20 5.42101086e-20
      5.42101086e-20 5.42101086e-20 5.42101086e-20 5.42101086e-20
      5.42101086e-20 5.42101086e-20 5.42101086e-20 5.42101086e-20
      5.42101086e-20 5.42101086e-20 5.42101086e-20 5.42101086e-20
      5.42101086e-20 5.42101086e-20 5.42101086e-20 5.42101086e-20
      -1.04803394e-05 -1.22031352e-05 -8.41094807e-05 -1.22031352e-05
      -1.22031352e-05 -6.07763968e-06 5.42101086e-20 -7.19063464e-05
      5.42101086e-20 5.42101086e-20 5.42101086e-20 5.42101086e-20
      5.42101086e-20 5.42101086e-20 5.42101086e-20 5.42101086e-20
      5.42101086e-20 5.42101086e-20 5.42101086e-20 1.29217478e-05
      4.03868144e-05 4.47932216e-05 -7.02063335e-05 1.70001181e-06
      -1.12217367e-05 6.08193332e-05 -1.42232329e-05 -5.76831117e-05
      5.42101086e-20 5.42101086e-20 5.42101086e-20 5.42101086e-20
      5.42101086e-20 5.42101086e-20 5.42101086e-20 5.42101086e-20
      5.42101086e-20 5.42101086e-20 5.42101086e-20 5.42101086e-20
      5.42101086e-20 5.42101086e-20 5.42101086e-20 5.42101086e-20
      5.42101086e-20 5.42101086e-20 5.42101086e-20 5.42101086e-20
      5.42101086e-20 5.42101086e-20 -1.04803394e-05 -1.22031352e-05
      -8.41094807e-05 -1.22031352e-05 -1.22031352e-05 -6.07763968e-06
      5.42101086e-20 -7.19063464e-05 5.42101086e-20 5.42101086e-20
      5.42101086e-20 5.42101086e-20 5.42101086e-20 5.42101086e-20
      5.42101086e-20 5.42101086e-20 5.42101086e-20 5.42101086e-20
      5.42101086e-20 1.29217478e-05 3.85204548e-05 4.47932216e-05
      -7.02063335e-05 1.70001181e-06 -1.12217367e-05 6.08193332e-05
      -1.42232329e-05 -5.76831117e-05 5.42101086e-20 5.42101086e-20
      5.42101086e-20 5.42101086e-20 5.42101086e-20 5.42101086e-20
      5.42101086e-20 5.42101086e-20 5.42101086e-20 5.42101086e-20
      5.42101086e-20 5.42101086e-20 5.42101086e-20 5.42101086e-20
      5.42101086e-20 5.42101086e-20 5.42101086e-20 5.42101086e-20
      5.42101086e-20 5.42101086e-20 5.42101086e-20 5.42101086e-20
      -1.04803394e-05 -1.22031352e-05 -8.41094807e-05 -1.22031352e-05
      -1.22031352e-05 -6.07763968e-06 5.42101086e-20 -7.19063464e-05
      5.42101086e-20 5.42101086e-20 5.42101086e-20 5.42101086e-20
      5.42101086e-20 5.42101086e-20 5.42101086e-20 5.42101086e-20
      5.42101086e-20 5.42101086e-20 5.42101086e-20 1.29217478e-05
      3.60319718e-05 4.47932216e-05 -7.02063335e-05 1.70001181e-06
      -1.12217367e-05 6.23985616e-05 -1.42232329e-05 -5.76831117e-05
      5.42101086e-20 5.42101086e-20 5.42101086e-20 5.42101086e-20
      5.42101086e-20 5.42101086e-20 5.42101086e-20 5.42101086e-20
      5.42101086e-20 5.42101086e-20 5.42101086e-20 5.42101086e-20
      5.42101086e-20 5.42101086e-20 5.42101086e-20 5.42101086e-20
      5.42101086e-20 5.42101086e-20 5.42101086e-20 5.42101086e-20
      5.42101086e-20 -2.63204879e-06 -1.22031352e-05 -1.22031352e-05
      -8.41094807e-05 -1.22031352e-05 -1.14374479e-05 -4.35484435e-06
      5.42101086e-20 -7.19063464e-05 5.42101086e-20 5.42101086e-20
      5.42101086e-20 5.42101086e-20 5.42101086e-20 5.42101086e-20
      5.42101086e-20 5.42101086e-20 5.42101086e-20 5.42101086e-20
      5.42101086e-20 1.29217478e-05 3.60319718e-05 4.47932216e-05
      -7.02063335e-05 1.70001181e-06 -1.12217367e-05 6.52220333e-05
      -1.42232329e-05 -5.76831117e-05 5.42101086e-20 5.42101086e-20
      5.42101086e-20 5.42101086e-20 5.42101086e-20 5.42101086e-20
      5.42101086e-20 5.42101086e-20 5.42101086e-20 5.42101086e-20
      5.42101086e-20 5.42101086e-20 5.42101086e-20 5.42101086e-20
      5.42101086e-20 5.42101086e-20 5.42101086e-20 5.42101086e-20
      5.42101086e-20 5.42101086e-20 5.42101086e-20 -2.63204879e-06
      -1.22031352e-05 -1.22031352e-05 -8.41094807e-05 -1.22031352e-05
      -9.57108659e-06 5.42101086e-20 5.42101086e-20 -7.19063464e-05
      5.42101086e-20 5.42101086e-20 5.42101086e-20 5.42101086e-20
      5.42101086e-20 5.42101086e-20 5.42101086e-20 5.42101086e-20
      5.42101086e-20 5.42101086e-20 5.42101086e-20 1.29217478e-05
      3.60319718e-05 4.47932216e-05 -7.02063335e-05 1.70001181e-06
      -1.12217367e-05 6.52220333e-05 -1.42232329e-05 -5.76831117e-05
      5.42101086e-20 5.42101086e-20 5.42101086e-20 5.42101086e-20
      5.42101086e-20 5.42101086e-20 5.42101086e-20 5.42101086e-20
      5.42101086e-20 5.42101086e-20 5.42101086e-20 5.42101086e-20
      5.42101086e-20 5.42101086e-20 5.42101086e-20 5.42101086e-20
      5.42101086e-20 5.42101086e-20 5.42101086e-20 5.42101086e-20
      5.42101086e-20 -2.63204879e-06 -1.22031352e-05 -1.22031352e-05
      -8.41094807e-05 -1.22031352e-05 -9.57108659e-06 5.42101086e-20
      5.42101086e-20 -7.19063464e-05 5.42101086e-20 5.42101086e-20
      5.42101086e-20 5.42101086e-20 5.42101086e-20 5.42101086e-20
      5.42101086e-20 5.42101086e-20 5.42101086e-20 5.42101086e-20
      3.38037285e-06 1.37395800e-05 3.60319718e-05 4.47932216e-05
      -7.02063335e-05 1.70001181e-06 -1.12217367e-05 6.52220333e-05
      -1.42232329e-05 -5.76831117e-05 5.42101086e-20 5.42101086e-20
      5.42101086e-20 5.42101086e-20 5.42101086e-20 5.42101086e-20
      5.42101086e-20 5.42101086e-20 5.42101086e-20 5.42101086e-20
      5.42101086e-20 5.42101086e-20 5.42101086e-20 5.42101086e-20
      5.42101086e-20 5.42101086e-20 5.42101086e-20 5.42101086e-20
      5.42101086e-20 5.42101086e-20 5.42101086e-20 -2.63204879e-06
      -1.22031352e-05 -1.22031352e-05 -8.41094807e-05 -1.22031352e-05
      -9.57108659e-06 5.42101086e-20 5.42101086e-20 -7.19063464e-05
      5.42101086e-20 5.42101086e-20 5.42101086e-20 5.42101086e-20
      5.42101086e-20 5.42101086e-20 5.42101086e-20 5.42101086e-20
      5.42101086e-20 5.42101086e-20 3.98011662e-06 1.39031463e-05
      3.60319718e-05 4.47932216e-05 -7.02063335e-05 -1.40775046e-06
      -1.19850465e-05 6.52220333e-05 -1.42232329e-05 -5.76831117e-05
      5.42101086e-20 5.42101086e-20 5.42101086e-20 5.42101086e-20
      5.42101086e-20 5.42101086e-20 5.42101086e-20 5.42101086e-20
      5.42101086e-20 5.42101086e-20 5.42101086e-20 5.42101086e-20
      5.42101086e-20 5.42101086e-20 5.42101086e-20 5.42101086e-20
      5.42101086e-20 5.42101086e-20 5.42101086e-20 5.42101086e-20
      5.42101086e-20 -2.63204879e-06 -1.22031352e-05 -1.22031352e-05
